<?xml version="1.0"?>
<opencv_storage>
<opencv_ml_svm>
  <format>3</format>
  <svmType>C_SVC</svmType>
  <kernel>
    <type>RBF</type>
    <gamma>3.3750000000000002e-02</gamma></kernel>
  <C>5.0000000000000000e-01</C>
  <term_criteria><epsilon>1.1920928955078125e-07</epsilon>
    <iterations>1000</iterations></term_criteria>
  <var_count>441</var_count>
  <class_count>2</class_count>
  <class_labels type_id="opencv-matrix">
    <rows>2</rows>
    <cols>1</cols>
    <dt>i</dt>
    <data>
      0 1</data></class_labels>
  <sv_total>287</sv_total>
  <support_vectors>
    <_>
      3.40740353e-01 3.40740353e-01 3.40740353e-01 3.40740353e-01
      3.40740353e-01 2.60314584e-01 3.40740353e-01 3.40740353e-01
      3.40740353e-01 3.61069053e-01 3.61069053e-01 3.61069053e-01
      2.37896591e-01 3.61069053e-01 2.02398896e-01 3.41477990e-01
      3.61069053e-01 3.61069053e-01 4.01546478e-01 4.01546478e-01
      4.01546478e-01 3.34704995e-01 4.01546478e-01 1.89331159e-01
      9.56527516e-02 1.81018025e-01 4.01546478e-01 4.14676964e-01
      4.14676964e-01 1.32761315e-01 1.12408064e-01 3.04990470e-01
      1.29284799e-01 4.09920573e-01 4.14676964e-01 4.14676964e-01
      4.53933448e-01 4.48519289e-01 1.86090171e-01 6.16805144e-02
      2.28562564e-01 7.81109929e-02 2.81697422e-01 4.53933448e-01
      4.53933448e-01 4.68296289e-01 4.68296289e-01 3.64232481e-01
      2.87699848e-01 1.92524642e-01 3.96206006e-02 9.39847529e-02
      2.72970676e-01 4.68296289e-01 5.87445378e-01 3.22345912e-01
      9.78032649e-02 4.54530232e-02 1.02058232e-01 5.82169220e-02
      1.21087804e-01 3.99930567e-01 5.87445378e-01 3.43864083e-01
      2.24998206e-01 3.43864083e-01 3.43864083e-01 3.43864083e-01
      3.43864083e-01 3.43864083e-01 3.43864083e-01 3.43864083e-01
      3.54549825e-01 3.54549825e-01 3.54549825e-01 3.54549825e-01
      3.54549825e-01 3.54549825e-01 1.75661102e-01 2.92680413e-01
      3.54549825e-01 3.54459614e-01 3.92982334e-01 3.92982334e-01
      3.92982334e-01 3.92982334e-01 3.92982334e-01 1.56764343e-01
      1.80317923e-01 2.02897176e-01 3.71604055e-01 3.71604055e-01
      3.71604055e-01 3.71604055e-01 3.58509719e-01 6.34598583e-02
      2.03424677e-01 3.63182664e-01 3.71604055e-01 3.82908642e-01
      3.82908642e-01 3.82908642e-01 3.82908642e-01 2.89339036e-01
      1.13940232e-01 1.85115010e-01 3.63472939e-01 3.82908642e-01
      4.61601943e-01 4.61601943e-01 4.61601943e-01 4.27659422e-01
      1.77776039e-01 5.01629002e-02 6.40514418e-02 1.01933151e-01
      3.53064030e-01 5.61733425e-01 5.61733425e-01 1.14836141e-01
      4.08994108e-02 4.22658883e-02 3.54563259e-02 4.71220873e-02
      1.66233033e-01 5.61733425e-01 1.77325696e-01 4.06575203e-01
      4.06575203e-01 4.06575203e-01 4.06575203e-01 4.06575203e-01
      3.14649820e-01 1.43555567e-01 1.35514870e-01 4.73451987e-02
      5.15329950e-02 1.20174654e-01 1.96394950e-01 6.31972253e-01
      6.31972253e-01 3.50724041e-01 9.96280462e-02 6.37904182e-02
      1.29595891e-01 1.23959534e-01 2.18071267e-01 2.41065636e-01
      5.14263034e-01 5.14263034e-01 5.14263034e-01 1.92617983e-01
      1.62893146e-01 3.64897579e-01 3.64897579e-01 3.64897579e-01
      3.07886809e-01 2.26478904e-01 2.26640403e-01 3.64897579e-01
      3.64897579e-01 3.64897579e-01 5.77830374e-01 5.77830374e-01
      3.69454116e-01 1.77850664e-01 1.04780585e-01 4.19533886e-02
      7.05430880e-02 1.28772199e-01 3.52178067e-01 5.70495427e-01
      5.70495427e-01 5.70495427e-01 7.76892751e-02 1.77241638e-02
      3.90902022e-03 1.29372422e-02 2.18486674e-02 1.04395114e-01
      5.34597814e-01 5.34597814e-01 2.34775543e-01 1.02248065e-01
      6.43279105e-02 1.14455663e-01 6.17423132e-02 2.25060910e-01
      5.34597814e-01 1.00075990e-01 1.34990349e-01 2.28077069e-01
      1.82937711e-01 4.78003591e-01 4.78003591e-01 4.78003591e-01
      4.15937513e-01 1.51777774e-01 9.85004529e-02 1.00706637e-01
      4.20961194e-02 5.27785532e-02 5.33740282e-01 5.47112644e-01
      5.47112644e-01 2.77618527e-01 9.75674838e-02 3.90024453e-01
      3.90024453e-01 2.13758379e-01 1.10470049e-01 1.59664795e-01
      3.90024453e-01 3.90024453e-01 3.90024453e-01 3.90024453e-01
      5.86516619e-01 4.03870374e-01 7.76853487e-02 6.98888227e-02
      7.71371573e-02 5.69820404e-02 1.43995509e-01 3.19651902e-01
      5.86516619e-01 5.95681310e-01 5.95681310e-01 2.65068978e-01
      5.17889000e-02 5.60274497e-02 6.99301949e-03 1.27391107e-02
      1.00672886e-01 4.44916576e-01 5.38936913e-01 5.38936913e-01
      5.38936913e-01 1.28188312e-01 1.89086452e-01 1.40756801e-01
      1.07534647e-01 1.01705402e-01 1.71326786e-01 4.32218879e-01
      4.32218879e-01 2.03380257e-01 9.07251835e-02 4.32218879e-01
      2.29755476e-01 1.93027020e-01 3.29830676e-01 4.32218879e-01
      3.32778692e-01 3.32778692e-01 3.32778692e-01 3.32778692e-01
      3.32778692e-01 3.32778692e-01 3.32778692e-01 3.32778692e-01
      3.32778692e-01 3.55242461e-01 3.55242461e-01 2.99979419e-01
      2.48161346e-01 2.96134949e-01 3.55242461e-01 3.55242461e-01
      3.55242461e-01 3.55242461e-01 4.42754179e-01 4.42754179e-01
      2.66942412e-01 1.25737622e-01 1.53732017e-01 2.24464938e-01
      2.24423513e-01 4.42754179e-01 4.42754179e-01 6.17429316e-01
      4.17460680e-01 8.16828161e-02 4.03091572e-02 4.69988026e-02
      1.01136509e-02 9.83295143e-02 1.91956431e-01 6.17429316e-01
      4.95820999e-01 4.95820999e-01 2.35031992e-01 5.20010591e-02
      2.92817771e-01 1.61355987e-01 2.41546765e-01 1.71655580e-01
      4.95820999e-01 3.73884529e-01 3.73884529e-01 3.73884529e-01
      2.33917311e-01 3.73884529e-01 2.67448783e-01 3.18187535e-01
      2.98965812e-01 3.46750706e-01 4.39611495e-01 4.39611495e-01
      4.39611495e-01 2.63211668e-01 2.87082195e-01 1.01194493e-01
      1.76298603e-01 2.69974500e-01 3.87207389e-01 4.20893759e-01
      4.20893759e-01 4.20893759e-01 4.20893759e-01 1.93675861e-01
      1.91033825e-01 2.94392705e-01 2.32983097e-01 2.68769115e-01
      3.56420338e-01 3.56420338e-01 3.56420338e-01 2.53795594e-01
      2.19389290e-01 3.56420338e-01 3.56420338e-01 3.56420338e-01
      3.48830104e-01 3.70375544e-01 3.70375544e-01 3.70375544e-01
      3.68737698e-01 1.87492236e-01 2.38480434e-01 2.87081450e-01
      3.70375544e-01 3.70375544e-01 3.77430856e-01 3.77430856e-01
      3.77430856e-01 3.77430856e-01 3.10300976e-01 1.68757826e-01
      3.26409966e-01 2.29454964e-01 3.77430856e-01 3.32778692e-01
      3.32778692e-01 3.32778692e-01 3.32778692e-01 3.32778692e-01
      3.32778692e-01 3.32778692e-01 3.32778692e-01 3.32778692e-01
      3.61828178e-01 3.61828178e-01 3.61828178e-01 3.51291001e-01
      3.13810378e-01 2.85915315e-01 2.83281267e-01 2.98040628e-01
      3.61828178e-01 4.80154246e-01 4.80154246e-01 4.07495350e-01
      2.00335890e-01 2.48692572e-01 1.31189853e-01 1.59975365e-01
      1.52872622e-01 4.47101921e-01 3.50183338e-01 3.50183338e-01
      3.50183338e-01 3.50183338e-01 3.50183338e-01 1.24396197e-01
      3.50183338e-01 3.50183338e-01 3.50183338e-01 4.80057329e-01
      4.80057329e-01 4.80057329e-01 2.24793538e-01 1.81954384e-01
      1.26595557e-01 1.11794487e-01 2.00558737e-01 3.89168769e-01
      4.49793428e-01 4.49793428e-01 4.49793428e-01 2.85073936e-01
      1.30011618e-01 6.65352643e-02 1.02424175e-01 2.70485818e-01
      4.49793428e-01 3.32778692e-01 3.32778692e-01 3.32778692e-01
      3.32778692e-01 3.32778692e-01 3.32778692e-01 3.32778692e-01
      3.32778692e-01 3.32778692e-01 3.58032942e-01 3.58032942e-01
      2.70278960e-01 1.74075529e-01 3.58032942e-01 3.52057278e-01
      3.58032942e-01 3.58032942e-01 3.58032942e-01 4.54981387e-01
      4.54981387e-01 4.54981387e-01 2.98840255e-01 2.84465313e-01
      3.07765037e-01 1.73577771e-01 1.22743525e-01 2.53556281e-01
      4.04520899e-01 4.04520899e-01 4.04520899e-01 4.04520899e-01
      4.04520899e-01 1.26997560e-01 1.83542490e-01 1.76163554e-01
      3.11325282e-01</_>
    <_>
      3.40740353e-01 3.40740353e-01 3.40740353e-01 3.40740353e-01
      3.40740353e-01 2.60314584e-01 3.40740353e-01 3.40740353e-01
      3.40740353e-01 3.61069053e-01 3.61069053e-01 3.61069053e-01
      2.37896591e-01 3.61069053e-01 2.02398896e-01 3.41477990e-01
      3.61069053e-01 3.61069053e-01 4.01546478e-01 4.01546478e-01
      4.01546478e-01 3.34704995e-01 4.01546478e-01 1.89331159e-01
      9.56527516e-02 1.81018025e-01 4.01546478e-01 4.14676964e-01
      4.14676964e-01 1.32761315e-01 1.12408064e-01 3.04990470e-01
      1.29284799e-01 4.09920573e-01 4.14676964e-01 4.14676964e-01
      4.53933448e-01 4.48519289e-01 1.86090171e-01 6.16805144e-02
      2.28562564e-01 7.81109929e-02 2.81697422e-01 4.53933448e-01
      4.53933448e-01 4.68296289e-01 4.68296289e-01 3.64232481e-01
      2.87699848e-01 1.92524642e-01 3.96206006e-02 9.39847529e-02
      2.72970676e-01 4.68296289e-01 5.87445378e-01 3.22345912e-01
      9.78032649e-02 4.54530232e-02 1.02058232e-01 5.82169220e-02
      1.21087804e-01 3.99930567e-01 5.87445378e-01 3.43864083e-01
      2.24998206e-01 3.43864083e-01 3.43864083e-01 3.43864083e-01
      3.43864083e-01 3.43864083e-01 3.43864083e-01 3.43864083e-01
      3.54549825e-01 3.54549825e-01 3.54549825e-01 3.54549825e-01
      3.54549825e-01 3.54549825e-01 1.75661102e-01 2.92680413e-01
      3.54549825e-01 3.54459614e-01 3.92982334e-01 3.92982334e-01
      3.92982334e-01 3.92982334e-01 3.92982334e-01 1.56764343e-01
      1.80317923e-01 2.02897176e-01 3.71604055e-01 3.71604055e-01
      3.71604055e-01 3.71604055e-01 3.58509719e-01 6.34598583e-02
      2.03424677e-01 3.63182664e-01 3.71604055e-01 3.82908642e-01
      3.82908642e-01 3.82908642e-01 3.82908642e-01 2.89339036e-01
      1.13940232e-01 1.85115010e-01 3.63472939e-01 3.82908642e-01
      4.61601943e-01 4.61601943e-01 4.61601943e-01 4.27659422e-01
      1.77776039e-01 5.01629002e-02 6.40514418e-02 1.01933151e-01
      3.53064030e-01 5.61733425e-01 5.61733425e-01 1.14836141e-01
      4.08994108e-02 4.22658883e-02 3.54563259e-02 4.71220873e-02
      1.66233033e-01 5.61733425e-01 1.77325696e-01 4.06575203e-01
      4.06575203e-01 4.06575203e-01 4.06575203e-01 4.06575203e-01
      3.14649820e-01 1.43555567e-01 1.35514870e-01 4.73451987e-02
      5.15329950e-02 1.20174654e-01 1.96394950e-01 6.31972253e-01
      6.31972253e-01 3.50724041e-01 9.96280462e-02 6.37904182e-02
      1.29595891e-01 1.23959534e-01 2.18071267e-01 2.41065636e-01
      5.14263034e-01 5.14263034e-01 5.14263034e-01 1.92617983e-01
      1.62893146e-01 3.64897579e-01 3.64897579e-01 3.64897579e-01
      3.07886809e-01 2.26478904e-01 2.26640403e-01 3.64897579e-01
      3.64897579e-01 3.64897579e-01 5.77830374e-01 5.77830374e-01
      3.69454116e-01 1.77850664e-01 1.04780585e-01 4.19533886e-02
      7.05430880e-02 1.28772199e-01 3.52178067e-01 5.70495427e-01
      5.70495427e-01 5.70495427e-01 7.76892751e-02 1.77241638e-02
      3.90902022e-03 1.29372422e-02 2.18486674e-02 1.04395114e-01
      5.34597814e-01 5.34597814e-01 2.34775543e-01 1.02248065e-01
      6.43279105e-02 1.14455663e-01 6.17423132e-02 2.25060910e-01
      5.34597814e-01 1.00075990e-01 1.34990349e-01 2.28077069e-01
      1.82937711e-01 4.78003591e-01 4.78003591e-01 4.78003591e-01
      4.15937513e-01 1.51777774e-01 9.85004529e-02 1.00706637e-01
      4.20961194e-02 5.27785532e-02 5.33740282e-01 5.47112644e-01
      5.47112644e-01 2.77618527e-01 9.75674838e-02 3.90024453e-01
      3.90024453e-01 2.13758379e-01 1.10470049e-01 1.59664795e-01
      3.90024453e-01 3.90024453e-01 3.90024453e-01 3.90024453e-01
      5.86516619e-01 4.03870374e-01 7.76853487e-02 6.98888227e-02
      7.71371573e-02 5.69820404e-02 1.43995509e-01 3.19651902e-01
      5.86516619e-01 5.95681310e-01 5.95681310e-01 2.65068978e-01
      5.17889000e-02 5.60274497e-02 6.99301949e-03 1.27391107e-02
      1.00672886e-01 4.44916576e-01 5.38936913e-01 5.38936913e-01
      5.38936913e-01 1.28188312e-01 1.89086452e-01 1.40756801e-01
      1.07534647e-01 1.01705402e-01 1.71326786e-01 4.32218879e-01
      4.32218879e-01 2.03380257e-01 9.07251835e-02 4.32218879e-01
      2.29755476e-01 1.93027020e-01 3.29830676e-01 4.32218879e-01
      3.32778692e-01 3.32778692e-01 3.32778692e-01 3.32778692e-01
      3.32778692e-01 3.32778692e-01 3.32778692e-01 3.32778692e-01
      3.32778692e-01 3.55242461e-01 3.55242461e-01 2.99979419e-01
      2.48161346e-01 2.96134949e-01 3.55242461e-01 3.55242461e-01
      3.55242461e-01 3.55242461e-01 4.42754179e-01 4.42754179e-01
      2.66942412e-01 1.25737622e-01 1.53732017e-01 2.24464938e-01
      2.24423513e-01 4.42754179e-01 4.42754179e-01 6.17429316e-01
      4.17460680e-01 8.16828161e-02 4.03091572e-02 4.69988026e-02
      1.01136509e-02 9.83295143e-02 1.91956431e-01 6.17429316e-01
      4.95820999e-01 4.95820999e-01 2.35031992e-01 5.20010591e-02
      2.92817771e-01 1.61355987e-01 2.41546765e-01 1.71655580e-01
      4.95820999e-01 3.73884529e-01 3.73884529e-01 3.73884529e-01
      2.33917311e-01 3.73884529e-01 2.67448783e-01 3.18187535e-01
      2.98965812e-01 3.46750706e-01 4.39611495e-01 4.39611495e-01
      4.39611495e-01 2.63211668e-01 2.87082195e-01 1.01194493e-01
      1.76298603e-01 2.69974500e-01 3.87207389e-01 4.20893759e-01
      4.20893759e-01 4.20893759e-01 4.20893759e-01 1.93675861e-01
      1.91033825e-01 2.94392705e-01 2.32983097e-01 2.68769115e-01
      3.56420338e-01 3.56420338e-01 3.56420338e-01 2.53795594e-01
      2.19389290e-01 3.56420338e-01 3.56420338e-01 3.56420338e-01
      3.48830104e-01 3.70375544e-01 3.70375544e-01 3.70375544e-01
      3.68737698e-01 1.87492236e-01 2.38480434e-01 2.87081450e-01
      3.70375544e-01 3.70375544e-01 3.77430856e-01 3.77430856e-01
      3.77430856e-01 3.77430856e-01 3.10300976e-01 1.68757826e-01
      3.26409966e-01 2.29454964e-01 3.77430856e-01 3.32778692e-01
      3.32778692e-01 3.32778692e-01 3.32778692e-01 3.32778692e-01
      3.32778692e-01 3.32778692e-01 3.32778692e-01 3.32778692e-01
      3.61828178e-01 3.61828178e-01 3.61828178e-01 3.51291001e-01
      3.13810378e-01 2.85915315e-01 2.83281267e-01 2.98040628e-01
      3.61828178e-01 4.80154246e-01 4.80154246e-01 4.07495350e-01
      2.00335890e-01 2.48692572e-01 1.31189853e-01 1.59975365e-01
      1.52872622e-01 4.47101921e-01 3.50183338e-01 3.50183338e-01
      3.50183338e-01 3.50183338e-01 3.50183338e-01 1.24396197e-01
      3.50183338e-01 3.50183338e-01 3.50183338e-01 4.80057329e-01
      4.80057329e-01 4.80057329e-01 2.24793538e-01 1.81954384e-01
      1.26595557e-01 1.11794487e-01 2.00558737e-01 3.89168769e-01
      4.49793428e-01 4.49793428e-01 4.49793428e-01 2.85073936e-01
      1.30011618e-01 6.65352643e-02 1.02424175e-01 2.70485818e-01
      4.49793428e-01 3.32778692e-01 3.32778692e-01 3.32778692e-01
      3.32778692e-01 3.32778692e-01 3.32778692e-01 3.32778692e-01
      3.32778692e-01 3.32778692e-01 3.58032942e-01 3.58032942e-01
      2.70278960e-01 1.74075529e-01 3.58032942e-01 3.52057278e-01
      3.58032942e-01 3.58032942e-01 3.58032942e-01 4.54981387e-01
      4.54981387e-01 4.54981387e-01 2.98840255e-01 2.84465313e-01
      3.07765037e-01 1.73577771e-01 1.22743525e-01 2.53556281e-01
      4.04520899e-01 4.04520899e-01 4.04520899e-01 4.04520899e-01
      4.04520899e-01 1.26997560e-01 1.83542490e-01 1.76163554e-01
      3.11325282e-01</_>
    <_>
      3.59849900e-01 3.36603135e-01 2.62743831e-01 2.78296828e-01
      3.59849900e-01 2.98596650e-01 3.59849900e-01 3.59849900e-01
      3.59849900e-01 3.42599750e-01 3.42599750e-01 3.42599750e-01
      3.31616849e-01 3.42599750e-01 2.54921824e-01 3.42599750e-01
      3.42599750e-01 3.42599750e-01 4.32769924e-01 4.32769924e-01
      4.32769924e-01 4.32769924e-01 2.30579406e-01 7.41233155e-02
      1.83941647e-01 2.66388267e-01 2.88200080e-01 3.51661772e-01
      3.51661772e-01 3.51661772e-01 3.51661772e-01 3.51661772e-01
      1.74322814e-01 3.16916794e-01 3.51661772e-01 3.51661772e-01
      3.64172816e-01 3.64172816e-01 3.64172816e-01 3.64172816e-01
      3.64172816e-01 1.92469358e-01 1.75966784e-01 3.64172816e-01
      3.64172816e-01 3.32778692e-01 3.32778692e-01 3.32778692e-01
      3.32778692e-01 3.32778692e-01 3.32778692e-01 3.32778692e-01
      3.32778692e-01 3.32778692e-01 3.32778692e-01 3.32778692e-01
      3.32778692e-01 3.32778692e-01 3.32778692e-01 3.32778692e-01
      3.32778692e-01 3.32778692e-01 3.32778692e-01 3.32778692e-01
      3.32778692e-01 3.32778692e-01 3.32778692e-01 3.32778692e-01
      3.32778692e-01 3.32778692e-01 3.32778692e-01 3.32778692e-01
      3.74132007e-01 3.74132007e-01 3.74132007e-01 3.74132007e-01
      3.74132007e-01 3.73418629e-01 1.63534731e-01 2.46499985e-01
      2.63516754e-01 3.94855171e-01 4.32744563e-01 4.32744563e-01
      4.32744563e-01 4.32744563e-01 1.51930511e-01 1.30446121e-01
      1.09063230e-01 1.96726859e-01 3.50632250e-01 2.47143328e-01
      2.73525476e-01 3.50632250e-01 3.50632250e-01 3.50632250e-01
      3.50632250e-01 3.50632250e-01 3.50632250e-01 4.60710019e-01
      3.23831379e-01 1.35792777e-01 9.72736701e-02 2.23162562e-01
      2.96862632e-01 2.96545804e-01 4.60710019e-01 4.60710019e-01
      3.98901343e-01 3.98901343e-01 2.74876356e-01 2.00344384e-01
      2.21745074e-01 1.88514546e-01 3.98901343e-01 3.98901343e-01
      3.98901343e-01 3.47734362e-01 3.47734362e-01 3.47734362e-01
      3.47734362e-01 2.92288601e-01 2.62663126e-01 3.41447145e-01
      3.47734362e-01 3.47734362e-01 3.32778692e-01 3.32778692e-01
      3.32778692e-01 3.32778692e-01 3.32778692e-01 3.32778692e-01
      3.32778692e-01 3.32778692e-01 3.32778692e-01 8.90647173e-02
      4.00258154e-01 4.00258154e-01 4.00258154e-01 4.00258154e-01
      4.00258154e-01 3.85862291e-01 1.81417510e-01 7.23456815e-02
      4.48637754e-02 2.21057132e-01 4.19741213e-01 4.19741213e-01
      4.19741213e-01 4.19741213e-01 4.19741213e-01 2.30775014e-01
      1.03717931e-01 4.16562140e-01 2.33673796e-01 1.89352244e-01
      1.37519404e-01 1.37293115e-01 4.16562140e-01 4.16562140e-01
      4.16562140e-01 4.16562140e-01 5.22608638e-01 5.22608638e-01
      1.21260561e-01 1.89920831e-02 3.80501039e-02 6.03532232e-02
      1.20652668e-01 3.75112176e-01 5.22608638e-01 4.20045048e-01
      4.20045048e-01 4.20045048e-01 2.77078837e-01 8.56956318e-02
      1.05607219e-01 1.35445058e-01 4.20045048e-01 4.20045048e-01
      5.59931636e-01 3.99919957e-01 2.29976565e-01 1.83414608e-01
      4.92550582e-02 1.09688438e-01 6.47172183e-02 3.19764853e-01
      5.59931636e-01 2.50058055e-01 3.56005996e-01 3.56005996e-01
      3.56005996e-01 3.56005996e-01 3.56005996e-01 3.56005996e-01
      3.56005996e-01 2.16176555e-01 7.68558979e-02 2.23296419e-01
      2.71103889e-01 3.86789769e-01 4.41611260e-01 4.41611260e-01
      4.41611260e-01 3.23504508e-01 1.64317667e-01 2.23540261e-01
      1.79132760e-01 7.96224996e-02 9.50264111e-02 8.74504149e-02
      4.71755177e-01 4.71755177e-01 4.71755177e-01 4.71755177e-01
      4.44913775e-01 4.44913775e-01 2.08155498e-01 5.18519431e-02
      7.01301992e-02 1.06927402e-01 3.76023501e-01 4.44913775e-01
      4.44913775e-01 5.14878213e-01 5.14878213e-01 2.85547644e-01
      7.17253387e-02 6.69366792e-02 1.15938541e-02 4.22016196e-02
      3.26314807e-01 5.14878213e-01 3.98700237e-01 3.98700237e-01
      3.98700237e-01 3.98700237e-01 1.18028939e-01 9.04876143e-02
      1.41869262e-01 3.98700237e-01 3.98700237e-01 4.09902066e-01
      4.09902066e-01 4.09902066e-01 2.36346439e-01 1.40136421e-01
      1.40047684e-01 2.46364713e-01 4.09902066e-01 4.09902066e-01
      4.22818482e-01 4.22818482e-01 4.22818482e-01 3.46697867e-01
      4.08821225e-01 2.72769004e-01 1.56891912e-01 1.19863249e-01
      2.42343739e-01 3.35441172e-01 3.35441172e-01 3.35441172e-01
      3.35441172e-01 3.35441172e-01 3.35441172e-01 3.35441172e-01
      3.35441172e-01 3.10615838e-01 4.14792120e-01 3.45527947e-01
      2.28174701e-01 2.64784127e-01 2.14737624e-01 1.41316637e-01
      4.14792120e-01 4.14792120e-01 4.14792120e-01 3.80311817e-01
      3.80311817e-01 3.80311817e-01 3.80311817e-01 3.53870958e-01
      7.18127862e-02 9.63202789e-02 3.65179211e-01 3.80311817e-01
      3.43326718e-01 3.43326718e-01 3.43326718e-01 3.43326718e-01
      3.43326718e-01 2.56618202e-01 3.24968100e-01 3.43326718e-01
      3.43326718e-01 3.61756086e-01 3.61756086e-01 3.61756086e-01
      3.61756086e-01 3.61756086e-01 3.13115180e-01 2.84620613e-01
      1.79251000e-01 3.61756086e-01 3.42476696e-01 3.42476696e-01
      3.42476696e-01 3.42476696e-01 3.42476696e-01 3.42476696e-01
      3.42476696e-01 3.12687725e-01 2.78876990e-01 4.19366330e-01
      4.19366330e-01 4.19366330e-01 1.69998616e-01 2.40859017e-01
      1.38120517e-01 2.18137011e-01 3.72511446e-01 4.19366330e-01
      4.55006659e-01 4.55006659e-01 4.55006659e-01 4.55006659e-01
      3.07337791e-01 1.78575724e-01 9.97921526e-02 1.22693256e-01
      1.26384720e-01 3.44124854e-01 3.44124854e-01 3.44124854e-01
      3.44124854e-01 3.44124854e-01 2.21780285e-01 3.44124854e-01
      3.44124854e-01 3.44124854e-01 3.93266082e-01 4.05045658e-01
      4.05045658e-01 4.05045658e-01 4.05045658e-01 9.77006629e-02
      1.50625080e-01 2.53761500e-01 2.97353655e-01 2.56956577e-01
      4.18205112e-01 4.18205112e-01 4.18205112e-01 4.18205112e-01
      3.56648892e-01 2.46316865e-01 1.21657252e-01 1.65959358e-01
      3.56853813e-01 3.56853813e-01 3.56853813e-01 3.56853813e-01
      3.56853813e-01 3.56853813e-01 3.22559386e-01 1.80889279e-01
      3.09194893e-01 3.51528019e-01 3.51528019e-01 3.51528019e-01
      3.51528019e-01 3.51528019e-01 3.51528019e-01 3.51528019e-01
      1.71947524e-01 3.19246382e-01 3.41866583e-01 3.41866583e-01
      3.41866583e-01 2.50035167e-01 3.41866583e-01 3.41866583e-01
      3.41866583e-01 3.41866583e-01 3.40525240e-01 4.69430983e-01
      4.69430983e-01 4.69430983e-01 3.56956184e-01 2.67415613e-01
      1.31857947e-01 1.00050636e-01 8.45764428e-02 3.17389876e-01
      3.52640003e-01 3.52640003e-01 3.52640003e-01 3.52640003e-01
      3.52640003e-01 2.37969518e-01 2.63367593e-01 3.52640003e-01
      3.52640003e-01 1.95747212e-01 4.79978144e-01 4.79978144e-01
      4.79978144e-01 4.79978144e-01 8.70575309e-02 1.01561099e-01
      8.54566395e-02 1.00878701e-01 1.14280552e-01 4.53832000e-01
      4.74166304e-01 4.74166304e-01 4.74166304e-01 2.00136647e-01
      1.95539892e-01 1.10909812e-01 1.05583534e-01 1.81944340e-01
      2.52898693e-01 3.75747472e-01 3.75747472e-01 3.75747472e-01
      3.75747472e-01 3.75747472e-01 3.66643757e-01 2.42540896e-01
      2.81216383e-01 2.53915578e-01 2.85023719e-01 3.25111598e-01
      3.82285267e-01 3.82285267e-01 3.82285267e-01 3.82285267e-01
      2.84817010e-01</_>
    <_>
      6.41261786e-02 4.00692314e-01 4.00692314e-01 4.00692314e-01
      4.00692314e-01 4.00692314e-01 4.00692314e-01 1.55825466e-01
      6.54013455e-02 3.80803555e-01 3.80803555e-01 3.80803555e-01
      3.80803555e-01 3.67018819e-01 2.16737077e-01 2.79193521e-01
      2.40528911e-01 3.14116597e-01 3.36472750e-01 3.36472750e-01
      3.36472750e-01 3.36472750e-01 3.36472750e-01 3.36472750e-01
      3.36472750e-01 3.36472750e-01 3.01540822e-01 3.32778692e-01
      3.32778692e-01 3.32778692e-01 3.32778692e-01 3.32778692e-01
      3.32778692e-01 3.32778692e-01 3.32778692e-01 3.32778692e-01
      3.32778692e-01 3.32778692e-01 3.32778692e-01 3.32778692e-01
      3.32778692e-01 3.32778692e-01 3.32778692e-01 3.32778692e-01
      3.32778692e-01 3.43889296e-01 3.43889296e-01 3.43889296e-01
      3.43889296e-01 2.74438202e-01 3.10251683e-01 3.43889296e-01
      3.43889296e-01 3.39753896e-01 4.13918555e-01 4.13918555e-01
      1.08274132e-01 6.39613867e-02 1.18562676e-01 3.30682456e-01
      4.13918555e-01 4.13918555e-01 4.13918555e-01 7.82498196e-02
      1.05868191e-01 1.54337525e-01 3.12687248e-01 2.79234409e-01
      4.98944730e-01 4.98944730e-01 4.98944730e-01 1.76870182e-01
      3.59168619e-01 3.59168619e-01 3.59168619e-01 3.59168619e-01
      3.59168619e-01 3.39402646e-01 3.59168619e-01 2.63334900e-01
      1.94575593e-01 2.55986661e-01 4.76822227e-01 4.76822227e-01
      3.89862448e-01 3.13635767e-01 3.81364375e-01 1.49975926e-01
      1.26506343e-01 2.01727554e-01 3.50632340e-01 3.50632340e-01
      3.50632340e-01 1.13808908e-01 3.50632340e-01 3.50632340e-01
      3.50632340e-01 3.50632340e-01 3.50632340e-01 4.93515074e-01
      4.93515074e-01 4.27781492e-01 1.24536358e-01 5.08402139e-02
      6.18743896e-02 9.13891271e-02 2.26115316e-01 4.93515074e-01
      4.00820106e-01 4.00820106e-01 4.00820106e-01 3.05136114e-01
      1.15604416e-01 1.93309844e-01 2.21067384e-01 4.00820106e-01
      4.00820106e-01 4.71318066e-01 4.71318066e-01 3.47867131e-01
      5.10375910e-02 9.25247744e-02 1.63561016e-01 1.43017411e-01
      3.86635393e-01 4.71318066e-01 2.30253786e-01 3.07779342e-01
      3.15888137e-01 3.53303432e-01 3.53303432e-01 3.53303432e-01
      3.53303432e-01 3.53303432e-01 3.53303432e-01 1.15835801e-01
      2.26280451e-01 5.37384570e-01 5.37384570e-01 5.37384570e-01
      1.70736298e-01 1.22822464e-01 8.68097916e-02 1.09059051e-01
      3.27656746e-01 4.48577613e-01 4.48577613e-01 4.48577613e-01
      4.40844029e-01 1.83575645e-01 1.30508780e-01 1.50959581e-01
      1.28957152e-01 3.55787903e-01 3.55787903e-01 3.55787903e-01
      2.78446287e-01 1.91571459e-01 3.50290000e-01 3.55787903e-01
      3.55787903e-01 3.55787903e-01 3.37974280e-01 3.37974280e-01
      3.37974280e-01 3.37974280e-01 2.87767977e-01 3.37974280e-01
      3.37974280e-01 3.37974280e-01 3.37974280e-01 4.35381621e-01
      4.35381621e-01 2.10787833e-01 1.22253045e-01 1.99175954e-01
      3.27518314e-01 1.76368311e-01 4.35381621e-01 4.35381621e-01
      5.09933889e-01 5.09933889e-01 1.47990748e-01 7.45966733e-02
      1.36964157e-01 1.60422862e-01 1.44397527e-01 3.49282354e-01
      5.09933889e-01 3.32778692e-01 3.32778692e-01 3.32778692e-01
      3.32778692e-01 3.32778692e-01 3.32778692e-01 3.32778692e-01
      3.32778692e-01 3.32778692e-01 8.99805203e-02 1.51159480e-01
      3.31203222e-01 4.81810093e-01 4.81810093e-01 4.81810093e-01
      3.43493730e-01 1.69537172e-01 1.06737055e-01 3.32778692e-01
      3.32778692e-01 3.32778692e-01 3.32778692e-01 3.32778692e-01
      3.32778692e-01 3.32778692e-01 3.32778692e-01 3.32778692e-01
      3.74113977e-01 3.74113977e-01 3.74113977e-01 1.56987265e-01
      9.86907259e-02 3.71305019e-01 3.74113977e-01 3.74113977e-01
      3.52425575e-01 3.55830163e-01 3.55830163e-01 3.11201960e-01
      3.55830163e-01 2.70568579e-01 3.31762999e-01 2.88528740e-01
      3.55830163e-01 3.55830163e-01 3.89258832e-01 3.89258832e-01
      2.60085911e-01 3.66801620e-01 3.89258832e-01 2.76907086e-01
      1.42184779e-01 3.01561445e-01 3.89258832e-01 3.34032863e-01
      3.34032863e-01 3.34032863e-01 3.22550714e-01 3.34032863e-01
      3.34032863e-01 3.34032863e-01 3.34032863e-01 3.34032863e-01
      3.40414822e-01 3.40414822e-01 3.40414822e-01 3.40414822e-01
      3.40414822e-01 3.40414822e-01 2.86354005e-01 3.21596712e-01
      3.40414822e-01 9.06259418e-02 1.65002644e-01 2.59647787e-01
      3.86477441e-01 4.18623984e-01 4.18623984e-01 4.18623984e-01
      4.18623984e-01 2.06430092e-01 9.05859396e-02 5.76761663e-02
      5.19212447e-02 4.90084775e-02 2.15479761e-01 5.15885651e-01
      5.15885651e-01 5.15885651e-01 3.65201861e-01 3.87667179e-01
      2.13166535e-01 2.46492192e-01 1.72899798e-01 3.10195982e-01
      3.91627222e-01 3.91627222e-01 3.91627222e-01 3.91627222e-01
      3.65071088e-01 3.65071088e-01 3.65071088e-01 3.65071088e-01
      1.68587461e-01 2.74328530e-01 3.04980993e-01 3.65071088e-01
      3.65071088e-01 4.27971572e-01 2.24357605e-01 4.27971572e-01
      4.27971572e-01 4.27971572e-01 1.73300803e-01 2.12419108e-01
      1.73281506e-01 3.27976197e-01 2.10788518e-01 1.45663366e-01
      3.38431805e-01 3.77976656e-01 3.77976656e-01 3.77976656e-01
      3.77976656e-01 3.77976656e-01 3.18914294e-01 3.46415013e-01
      3.46415013e-01 3.46415013e-01 3.46415013e-01 3.46415013e-01
      2.63932943e-01 2.94711351e-01 3.46415013e-01 3.46415013e-01
      1.12393402e-01 3.70136261e-01 3.70136261e-01 3.70136261e-01
      3.70136261e-01 3.17178488e-01 3.70136261e-01 3.70136261e-01
      2.47108385e-01 3.78687620e-01 2.12487668e-01 1.07684687e-01
      1.00292698e-01 2.28267327e-01 2.07859054e-01 4.79475230e-01
      4.79475230e-01 4.79475230e-01 4.49036330e-01 3.73584569e-01
      2.18871668e-01 1.16533615e-01 9.39022675e-02 1.20071806e-01
      4.07834083e-01 4.49036330e-01 4.49036330e-01 3.49227369e-01
      3.49227369e-01 3.49227369e-01 2.03295633e-01 3.41099679e-01
      3.49227369e-01 3.49227369e-01 3.49227369e-01 3.27221811e-01
      2.33425647e-01 3.98838818e-01 3.98838818e-01 3.98838818e-01
      3.32578212e-01 2.67339855e-01 3.24150652e-01 3.39655638e-01
      2.48580635e-01 3.71564209e-01 3.34826022e-01 2.42716148e-01
      1.91797569e-01 3.71564209e-01 3.13340336e-01 3.71564209e-01
      3.71564209e-01 3.71564209e-01 3.14670086e-01 3.44392031e-01
      3.44392031e-01 3.44392031e-01 3.44392031e-01 3.44392031e-01
      3.44392031e-01 3.44392031e-01 2.59423971e-01 3.27202708e-01
      3.31629395e-01 2.90339857e-01 3.36868316e-01 3.41108412e-01
      3.41108412e-01 3.41108412e-01 3.41108412e-01 3.41108412e-01
      3.42383981e-01 3.42383981e-01 2.56855786e-01 3.31687421e-01
      3.42383981e-01 3.42383981e-01 3.42383981e-01 3.42383981e-01
      3.42383981e-01 3.36781293e-01 3.36781293e-01 3.36781293e-01
      2.98767298e-01 3.36781293e-01 3.36781293e-01 3.36781293e-01
      3.36781293e-01 3.36781293e-01 3.59752417e-01 3.59752417e-01
      3.59752417e-01 2.54123777e-01 1.82172254e-01 3.49441200e-01
      3.59752417e-01 3.59752417e-01 3.59752417e-01 3.32778692e-01
      3.32778692e-01 3.32778692e-01 3.32778692e-01 3.32778692e-01
      3.32778692e-01 3.32778692e-01 3.32778692e-01 3.32778692e-01
      3.38968962e-01 3.38968962e-01 3.38968962e-01 3.38968962e-01
      3.38968962e-01 2.78232843e-01 3.38968962e-01 3.38968962e-01
      3.38968962e-01</_>
    <_>
      3.32778692e-01 3.32778692e-01 3.32778692e-01 3.32778692e-01
      3.32778692e-01 3.32778692e-01 3.32778692e-01 3.32778692e-01
      3.32778692e-01 3.39011401e-01 3.39011401e-01 3.39011401e-01
      3.39011401e-01 3.21541727e-01 2.97863543e-01 3.39011401e-01
      3.39011401e-01 3.39011401e-01 3.95571887e-01 2.34744236e-01
      2.44306386e-01 1.66990057e-01 2.66433060e-01 3.95571887e-01
      3.95571887e-01 3.95571887e-01 3.95571887e-01 3.69397134e-01
      3.69397134e-01 3.69397134e-01 2.63854504e-01 2.50731170e-01
      2.61015952e-01 3.36784303e-01 3.69397134e-01 3.69397134e-01
      3.74373406e-01 3.43428105e-01 1.91008553e-01 2.08906949e-01
      3.12111288e-01 3.74373406e-01 3.74373406e-01 3.74373406e-01
      3.74373406e-01 3.32778692e-01 3.32778692e-01 3.32778692e-01
      3.32778692e-01 3.32778692e-01 3.32778692e-01 3.32778692e-01
      3.32778692e-01 3.32778692e-01 3.37099910e-01 3.37099910e-01
      3.37099910e-01 3.37099910e-01 2.95873642e-01 3.37099910e-01
      3.37099910e-01 3.37099910e-01 3.37099910e-01 3.57263178e-01
      3.57263178e-01 3.57263178e-01 3.57263178e-01 3.15017849e-01
      2.53089458e-01 2.59457558e-01 3.57263178e-01 3.57263178e-01
      4.05972630e-01 4.05972630e-01 4.05972630e-01 4.05972630e-01
      4.05972630e-01 2.03708380e-01 1.67028263e-01 2.01742545e-01
      2.48555645e-01 3.53723526e-01 3.53723526e-01 3.53723526e-01
      3.42877328e-01 1.77115560e-01 3.53723526e-01 3.53723526e-01
      3.53723526e-01 3.11141908e-01 3.92644525e-01 3.92644525e-01
      3.92644525e-01 2.15617523e-01 2.10011169e-01 1.87025353e-01
      3.15681130e-01 3.92644525e-01 3.92644525e-01 4.84881938e-01
      3.54759157e-01 1.61589786e-01 1.46012768e-01 2.38762021e-01
      1.48676500e-01 1.93464413e-01 4.84881938e-01 4.84881938e-01
      4.60793108e-01 2.55617946e-01 1.28291205e-01 8.07353929e-02
      9.90167335e-02 2.18984902e-01 4.60793108e-01 4.60793108e-01
      4.60793108e-01 3.47064078e-01 3.47064078e-01 3.47064078e-01
      2.69974798e-01 3.12065631e-01 3.21776658e-01 3.47064078e-01
      3.47064078e-01 3.47064078e-01 3.55870396e-01 3.55870396e-01
      3.55870396e-01 3.55870396e-01 3.55870396e-01 3.55870396e-01
      2.47949749e-01 3.55870396e-01 2.20134452e-01 3.80291730e-01
      3.80291730e-01 3.80291730e-01 3.80291730e-01 3.80291730e-01
      3.80291730e-01 2.03754395e-01 2.10674301e-01 2.06325829e-01
      3.63360912e-01 3.63360912e-01 3.63360912e-01 3.63360912e-01
      3.63360912e-01 3.63360912e-01 2.38134935e-01 2.84330457e-01
      2.58129328e-01 3.96656752e-01 3.96656752e-01 2.83201396e-01
      1.24338232e-01 2.25685596e-01 2.50514418e-01 3.96656752e-01
      3.96656752e-01 3.96656752e-01 4.68089908e-01 3.82533222e-01
      6.26163706e-02 7.34621212e-02 1.28305033e-01 1.57628909e-01
      3.75555396e-01 4.68089908e-01 4.68089908e-01 3.08345139e-01
      2.09919527e-01 1.61848128e-01 7.59377554e-02 1.28886938e-01
      9.32131633e-02 5.15894949e-01 5.15894949e-01 5.15894949e-01
      3.60338926e-01 3.60338926e-01 3.60338926e-01 2.94699311e-01
      3.02060902e-01 1.98107630e-01 3.60338926e-01 3.60338926e-01
      3.60338926e-01 2.37303585e-01 2.48143226e-01 3.66186082e-01
      3.66186082e-01 3.66186082e-01 3.66186082e-01 3.66186082e-01
      3.66186082e-01 2.71845490e-01 1.25839621e-01 2.30905622e-01
      3.91667694e-01 3.91667694e-01 3.91667694e-01 3.91667694e-01
      3.91667694e-01 3.88359755e-01 9.53575894e-02 1.53060481e-01
      3.69203329e-01 4.07841206e-01 4.07841206e-01 4.07841206e-01
      4.07841206e-01 2.92953640e-01 2.56245941e-01 1.39160633e-01
      1.96614072e-01 3.51783007e-01 3.51783007e-01 3.51783007e-01
      3.51783007e-01 3.51783007e-01 3.51783007e-01 3.51783007e-01
      3.02603811e-01 3.86560351e-01 1.40934110e-01 8.63099322e-02
      6.45801425e-02 1.34346426e-01 2.49005854e-01 4.94670004e-01
      4.94670004e-01 4.94670004e-01 3.54653925e-01 3.54653925e-01
      3.54653925e-01 3.54653925e-01 3.54653925e-01 2.04114422e-01
      2.72650242e-01 3.54653925e-01 3.54653925e-01 3.59426588e-01
      3.59426588e-01 3.55808645e-01 3.55363250e-01 3.59426588e-01
      2.86030740e-01 3.08255076e-01 2.23476306e-01 3.59426588e-01
      2.25603774e-01 3.02974522e-01 3.34452510e-01 3.34218651e-01
      3.66854280e-01 3.66854280e-01 3.66854280e-01 3.66854280e-01
      3.02911758e-01 2.20870838e-01 2.46297732e-01 2.55714148e-01
      2.02622756e-01 2.32700914e-01 4.52299029e-01 4.52299029e-01
      4.52299029e-01 3.34240824e-01 2.79846966e-01 3.30877483e-01
      3.39917988e-01 3.39917988e-01 3.39917988e-01 3.39917988e-01
      3.39917988e-01 3.39917988e-01 3.39917988e-01 3.46121401e-01
      3.46121401e-01 3.44446212e-01 1.98238462e-01 3.46121401e-01
      3.46121401e-01 3.46121401e-01 3.46121401e-01 3.46121401e-01
      3.41483295e-01 2.32480690e-01 1.41882062e-01 3.59511942e-01
      3.67773890e-01 3.67773890e-01 3.67773890e-01 3.67773890e-01
      3.67773890e-01 1.17166780e-01 3.95120949e-01 3.95586908e-01
      3.95586908e-01 3.95586908e-01 3.48241687e-01 2.64754206e-01
      2.54720211e-01 3.16990703e-01 3.92657995e-01 3.92657995e-01
      3.92657995e-01 3.92657995e-01 2.77091742e-01 1.49981216e-01
      1.87298328e-01 3.01364958e-01 3.92657995e-01 3.32778692e-01
      3.32778692e-01 3.32778692e-01 3.32778692e-01 3.32778692e-01
      3.32778692e-01 3.32778692e-01 3.32778692e-01 3.32778692e-01
      3.55594009e-01 3.55594009e-01 3.55594009e-01 3.02784234e-01
      2.45213404e-01 2.93183804e-01 3.55594009e-01 3.55594009e-01
      3.55594009e-01 3.32778692e-01 3.32778692e-01 3.32778692e-01
      3.32778692e-01 3.32778692e-01 3.32778692e-01 3.32778692e-01
      3.32778692e-01 3.32778692e-01 3.51647437e-01 3.51647437e-01
      3.51647437e-01 3.51647437e-01 3.51647437e-01 2.14154243e-01
      2.91604847e-01 3.51647437e-01 3.51647437e-01 2.67597973e-01
      1.88674644e-01 2.14414597e-01 2.14736834e-01 3.06074470e-01
      4.19177383e-01 4.19177383e-01 4.19177383e-01 4.19177383e-01
      3.18102777e-01 3.46894234e-01 3.46894234e-01 3.46894234e-01
      3.46894234e-01 3.46894234e-01 3.46894234e-01 2.30207548e-01
      3.46894234e-01 3.32778692e-01 3.32778692e-01 3.32778692e-01
      3.32778692e-01 3.32778692e-01 3.32778692e-01 3.32778692e-01
      3.32778692e-01 3.32778692e-01 1.78419530e-01 3.53719860e-01
      3.53719860e-01 3.53719860e-01 3.53719860e-01 2.98007250e-01
      3.53719860e-01 3.53719860e-01 3.53719860e-01 2.93179065e-01
      3.50981742e-01 3.50981742e-01 3.50981742e-01 3.50981742e-01
      3.50981742e-01 3.50981742e-01 3.50981742e-01 2.19594985e-01
      3.29306573e-01 3.14648062e-01 3.50153357e-01 3.50153357e-01
      3.50153357e-01 3.50153357e-01 3.50153357e-01 3.50153357e-01
      2.31108353e-01 1.62823007e-01 1.71314076e-01 2.10564509e-01
      4.12552088e-01 4.12552088e-01 4.12552088e-01 4.12552088e-01
      3.06785136e-01 3.47516328e-01 3.24771196e-01 3.74574423e-01
      3.74574423e-01 3.74574423e-01 3.74574423e-01 3.74574423e-01
      3.74574423e-01 1.64170384e-01 1.48302436e-01 4.39281523e-01
      4.39281523e-01 4.39281523e-01 3.62103969e-01 2.04617381e-01
      2.32637435e-01 2.17295244e-01 1.69712618e-01 3.37016374e-01
      3.60611975e-01 3.60611975e-01 3.60611975e-01 2.57191896e-01
      2.57862240e-01 2.88982123e-01 3.60611975e-01 3.60611975e-01
      3.60611975e-01</_>
    <_>
      3.86856735e-01 3.86856735e-01 3.40058118e-01 2.13994727e-01
      2.39873335e-01 2.00614274e-01 3.71865720e-01 3.86856735e-01
      3.86856735e-01 3.32778692e-01 3.32778692e-01 3.32778692e-01
      3.32778692e-01 3.32778692e-01 3.32778692e-01 3.32778692e-01
      3.32778692e-01 3.32778692e-01 3.36164981e-01 3.36164981e-01
      3.34268093e-01 3.06362212e-01 3.36164981e-01 3.36164981e-01
      3.36164981e-01 3.36164981e-01 3.36164981e-01 3.46909851e-01
      3.46909851e-01 3.46909851e-01 3.46909851e-01 3.46909851e-01
      2.47202665e-01 3.04958582e-01 3.46909851e-01 3.46909851e-01
      3.86230588e-01 3.86230588e-01 3.67856592e-01 1.61890075e-01
      1.27057374e-01 2.69445300e-01 3.86230588e-01 3.86230588e-01
      3.86230588e-01 4.18184578e-01 4.18184578e-01 2.44041055e-01
      1.47474274e-01 2.04874247e-01 1.22165158e-01 3.97626519e-01
      4.18184578e-01 4.18184578e-01 3.39917362e-01 3.39917362e-01
      3.39917362e-01 3.39917362e-01 3.39917362e-01 2.68799663e-01
      3.39917362e-01 3.39917362e-01 3.39917362e-01 2.97276676e-01
      3.63017291e-01 3.27820927e-01 9.92170349e-02 3.63017291e-01
      3.63017291e-01 3.63017291e-01 3.63017291e-01 3.63017291e-01
      4.01643097e-01 4.01643097e-01 4.01643097e-01 4.01643097e-01
      2.67516613e-01 1.48700237e-01 1.58596948e-01 2.65653610e-01
      4.01643097e-01 3.85535479e-01 3.85535479e-01 3.85535479e-01
      3.85535479e-01 2.10133046e-01 1.76134586e-01 1.97655872e-01
      3.72442216e-01 3.85535479e-01 4.51912254e-01 4.51912254e-01
      2.46244460e-01 1.17396578e-01 9.75228325e-02 1.52981624e-01
      2.66936004e-01 4.51912254e-01 4.51912254e-01 4.20510054e-01
      4.20510054e-01 2.10783809e-01 1.18376225e-01 1.21914074e-01
      1.95831507e-01 4.20510054e-01 4.20510054e-01 4.20510054e-01
      3.63921970e-01 3.63921970e-01 3.63921970e-01 3.63921970e-01
      3.63921970e-01 3.18016559e-01 2.15382501e-01 2.92529792e-01
      3.17915291e-01 3.36964995e-01 3.36964995e-01 3.36964995e-01
      3.36964995e-01 3.36964995e-01 3.35594594e-01 2.98649728e-01
      3.36964995e-01 3.36964995e-01 4.22688425e-02 1.22736759e-01
      2.64847010e-01 5.20913064e-01 5.20913064e-01 5.20913064e-01
      2.96052933e-01 7.04129711e-02 3.38568725e-02 4.22928296e-02
      2.12945551e-01 4.50730383e-01 4.50730383e-01 4.50730383e-01
      4.50730383e-01 3.52840245e-01 9.25815403e-02 5.16146980e-02
      2.69877940e-01 4.03939784e-01 4.03939784e-01 4.03939784e-01
      4.03939784e-01 4.03939784e-01 2.57295430e-01 1.24998756e-01
      1.59587443e-01 3.32778692e-01 3.32778692e-01 3.32778692e-01
      3.32778692e-01 3.32778692e-01 3.32778692e-01 3.32778692e-01
      3.32778692e-01 3.32778692e-01 3.48652780e-01 3.48652780e-01
      3.36720228e-01 3.06408376e-01 3.48652780e-01 2.44739532e-01
      3.48652780e-01 3.48652780e-01 3.48652780e-01 3.76783699e-01
      3.76783699e-01 3.76783699e-01 3.76783699e-01 2.40373716e-01
      1.43296674e-01 3.54657054e-01 3.76783699e-01 2.86898553e-01
      1.93691000e-01 3.86118025e-01 5.06034970e-01 5.06034970e-01
      5.06034970e-01 1.03735112e-01 7.54732713e-02 4.89927977e-02
      1.45847142e-01 1.11161977e-01 2.02545941e-01 3.24866146e-01
      3.72509450e-01 4.63387936e-01 4.63387936e-01 4.63387936e-01
      2.25170135e-01 5.29289581e-02 1.82688460e-01 1.21418372e-01
      1.03286736e-01 2.86035806e-01 4.45384115e-01 4.45384115e-01
      4.45384115e-01 4.45384115e-01 2.47953489e-01 3.76550347e-01
      3.87622565e-01 2.20057592e-01 1.71441674e-01 1.62552133e-01
      3.86123866e-01 3.87622565e-01 3.87622565e-01 3.87622565e-01
      3.85733902e-01 3.85733902e-01 3.85733902e-01 1.70879617e-01
      1.04242489e-01 2.51666784e-01 3.85733902e-01 3.85733902e-01
      3.85733902e-01 3.82721514e-01 3.82721514e-01 1.47862434e-01
      1.99633285e-01 2.35807464e-01 3.82721514e-01 3.82721514e-01
      3.82721514e-01 3.82721514e-01 3.50871325e-01 3.50871325e-01
      3.48531872e-01 2.97438443e-01 2.46330500e-01 3.32141548e-01
      3.50871325e-01 3.50871325e-01 3.50871325e-01 3.32778692e-01
      3.32778692e-01 3.32778692e-01 3.32778692e-01 3.32778692e-01
      3.32778692e-01 3.32778692e-01 3.32778692e-01 3.32778692e-01
      3.24308187e-01 4.12258625e-01 4.12258625e-01 4.12258625e-01
      4.12258625e-01 2.27419123e-01 2.66962707e-01 2.70957351e-01
      1.20293766e-01 3.37831706e-01 3.37831706e-01 3.37831706e-01
      3.37831706e-01 3.37831706e-01 2.89106727e-01 3.37831706e-01
      3.37831706e-01 3.37831706e-01 4.03163344e-01 4.03163344e-01
      3.06759983e-01 2.12249234e-01 1.47425294e-01 2.19250292e-01
      3.69936943e-01 4.03163344e-01 4.03163344e-01 4.38733250e-01
      4.38733250e-01 4.38733250e-01 1.17860816e-01 1.12609103e-01
      1.63384140e-01 1.60905108e-01 3.82770509e-01 4.38733250e-01
      4.03930098e-01 3.73704523e-01 1.78956404e-01 2.87936091e-01
      2.02057377e-01 2.18887627e-01 4.03930098e-01 4.03930098e-01
      4.03930098e-01 3.41790289e-01 2.49038920e-01 3.41790289e-01
      3.41790289e-01 3.41790289e-01 3.41790289e-01 3.41790289e-01
      3.41790289e-01 3.41790289e-01 2.48090491e-01 3.70521188e-01
      3.52265567e-01 2.12586462e-01 3.44100684e-01 3.70521188e-01
      3.70521188e-01 3.70521188e-01 3.12915713e-01 4.00867552e-01
      4.23078537e-01 4.23078537e-01 4.23078537e-01 3.78333002e-01
      2.37194464e-01 1.55565158e-01 1.44713268e-01 2.31415167e-01
      1.34089768e-01 3.28112692e-01 4.77255315e-01 4.77255315e-01
      4.77255315e-01 3.04492652e-01 2.26969063e-01 1.78294390e-01
      1.01280786e-01 1.46875665e-01 3.75079662e-01 3.94432515e-01
      3.94432515e-01 3.94432515e-01 3.94432515e-01 3.94432515e-01
      1.89084440e-01 1.42001778e-01 3.47518653e-01 3.47518653e-01
      3.33424777e-01 2.17814758e-01 3.47518653e-01 3.47518653e-01
      3.47518653e-01 3.36596668e-01 3.47518653e-01 3.32778692e-01
      3.32778692e-01 3.32778692e-01 3.32778692e-01 3.32778692e-01
      3.32778692e-01 3.32778692e-01 3.32778692e-01 3.32778692e-01
      3.32778692e-01 3.32778692e-01 3.32778692e-01 3.32778692e-01
      3.32778692e-01 3.32778692e-01 3.32778692e-01 3.32778692e-01
      3.32778692e-01 3.46522897e-01 2.86476523e-01 2.71886379e-01
      3.46522897e-01 3.46522897e-01 3.46522897e-01 3.46522897e-01
      3.46522897e-01 3.46522897e-01 3.49397779e-01 3.49397779e-01
      3.49397779e-01 3.49397779e-01 3.49397779e-01 2.97903121e-01
      2.30675295e-01 3.49397779e-01 3.49397779e-01 3.43858331e-01
      3.43858331e-01 3.43858331e-01 3.43858331e-01 3.43858331e-01
      3.19271743e-01 3.14355195e-01 2.93904006e-01 3.43858331e-01
      2.85226762e-01 4.49357420e-01 4.49357420e-01 4.49357420e-01
      4.49357420e-01 2.22699657e-01 1.54011056e-01 1.07554629e-01
      1.46922290e-01 3.34573597e-01 3.34573597e-01 3.34573597e-01
      3.34573597e-01 3.34573597e-01 3.18026781e-01 3.34573597e-01
      3.34573597e-01 3.34573597e-01 3.38959783e-01 2.29527339e-01
      2.97698110e-01 2.38078445e-01 3.69709134e-01 3.69709134e-01
      3.69709134e-01 3.69709134e-01 3.69709134e-01 2.47673184e-01
      2.00343832e-01 2.32767493e-01 1.77460521e-01 2.87504852e-01
      3.42224777e-01 4.50396746e-01 4.50396746e-01 4.50396746e-01
      2.67987192e-01 3.18179190e-01 3.42994750e-01 3.42994750e-01
      3.42994750e-01 3.42994750e-01 3.42994750e-01 3.42994750e-01
      3.42994750e-01</_>
    <_>
      3.08915466e-01 2.27272257e-01 1.92221150e-01 2.39955574e-01
      2.91180789e-01 4.09120321e-01 4.09120321e-01 4.09120321e-01
      4.09120321e-01 3.32778692e-01 3.32778692e-01 3.32778692e-01
      3.32778692e-01 3.32778692e-01 3.32778692e-01 3.32778692e-01
      3.32778692e-01 3.32778692e-01 3.43211621e-01 3.43211621e-01
      3.43211621e-01 3.43211621e-01 3.27298343e-01 2.54729778e-01
      3.43211621e-01 3.43211621e-01 3.43211621e-01 3.51201087e-01
      3.24671596e-01 3.06907713e-01 2.38399059e-01 3.51201087e-01
      3.51201087e-01 3.51201087e-01 3.51201087e-01 3.51201087e-01
      3.34768564e-01 3.34768564e-01 3.22019994e-01 3.34768564e-01
      3.34768564e-01 3.34768564e-01 3.29345345e-01 3.34768564e-01
      3.34768564e-01 3.34104389e-01 3.34104389e-01 3.21956456e-01
      3.34104389e-01 3.34104389e-01 3.34104389e-01 3.34104389e-01
      3.34104389e-01 3.34104389e-01 3.45864534e-01 3.45864534e-01
      3.45864534e-01 3.20082068e-01 3.45864534e-01 2.60273010e-01
      3.45864534e-01 3.29569489e-01 3.45864534e-01 3.81354541e-01
      2.89106369e-01 3.65720183e-01 2.64345407e-01 2.74168670e-01
      2.28219703e-01 3.81354541e-01 3.81354541e-01 3.81354541e-01
      3.48247916e-01 3.48247916e-01 3.48247916e-01 3.48247916e-01
      2.97426403e-01 2.43149906e-01 3.48247916e-01 3.48247916e-01
      3.48247916e-01 3.98100585e-01 3.98100585e-01 3.98100585e-01
      3.98100585e-01 2.28477925e-01 1.80398583e-01 2.54671335e-01
      2.32377455e-01 3.98100585e-01 3.60510081e-01 3.60510081e-01
      3.60510081e-01 1.63311839e-01 2.44856864e-01 3.60510081e-01
      3.60510081e-01 3.60510081e-01 3.60510081e-01 4.09286469e-01
      4.09286469e-01 4.09286469e-01 9.84325036e-02 6.21298477e-02
      1.63625732e-01 3.43528360e-01 4.09286469e-01 4.09286469e-01
      4.71925944e-01 2.41848990e-01 1.27451867e-01 8.58359113e-02
      1.06871352e-01 1.04430668e-01 4.71925944e-01 4.71925944e-01
      4.71925944e-01 3.69742811e-01 3.69742811e-01 1.72621891e-01
      1.05789490e-01 3.67502302e-01 3.69742811e-01 3.69742811e-01
      3.69742811e-01 3.69742811e-01 3.33042353e-01 3.33042353e-01
      3.33042353e-01 3.33042353e-01 3.30658078e-01 3.33042353e-01
      3.33042353e-01 3.33042353e-01 3.33042353e-01 3.54566187e-01
      3.54566187e-01 3.54566187e-01 3.54566187e-01 3.54566187e-01
      2.63432890e-01 2.74400800e-01 3.12188387e-01 3.54566187e-01
      3.56333882e-01 3.56333882e-01 3.56333882e-01 3.56333882e-01
      3.56333882e-01 3.34704131e-01 2.71022052e-01 2.33893231e-01
      3.48403394e-01 3.64300430e-01 3.64300430e-01 3.64300430e-01
      3.64300430e-01 2.27526009e-01 2.81727970e-01 3.05819094e-01
      3.28819513e-01 3.64300430e-01 3.74693543e-01 3.74693543e-01
      3.39930475e-01 1.11067310e-01 2.38349795e-01 3.31030250e-01
      3.74693543e-01 3.74693543e-01 3.74693543e-01 4.82977480e-01
      3.81514639e-01 8.99894089e-02 5.55218719e-02 1.43552512e-01
      1.98261291e-01 2.80580074e-01 4.82977480e-01 4.82977480e-01
      3.53720725e-01 1.36591747e-01 5.89060970e-02 4.80290689e-02
      7.46683553e-02 1.55587584e-01 5.21362960e-01 5.21362960e-01
      5.21362960e-01 3.33298087e-01 3.28586161e-01 3.33298087e-01
      3.33298087e-01 3.33298087e-01 3.33298087e-01 3.33298087e-01
      3.33298087e-01 3.33298087e-01 1.79959252e-01 3.65416288e-01
      3.65416288e-01 3.65416288e-01 3.65416288e-01 3.65416288e-01
      3.65416288e-01 3.39225680e-01 2.18438387e-01 3.62060755e-01
      3.62060755e-01 3.62060755e-01 3.62060755e-01 3.62060755e-01
      3.62060755e-01 3.62060755e-01 2.57030308e-01 1.12703659e-01
      3.64882201e-01 3.64882201e-01 3.64882201e-01 3.64882201e-01
      3.64882201e-01 3.64882201e-01 2.02183649e-01 2.63528377e-01
      2.95288146e-01 3.58839124e-01 3.58839124e-01 3.03044617e-01
      2.91050225e-01 2.17429265e-01 3.58839124e-01 3.58839124e-01
      3.58839124e-01 3.58839124e-01 4.29219097e-01 2.77135253e-01
      1.32272050e-01 3.54091860e-02 1.01499513e-01 3.91075909e-01
      4.29219097e-01 4.29219097e-01 4.29219097e-01 3.66889358e-01
      3.66889358e-01 3.66889358e-01 1.92620680e-01 3.31212163e-01
      2.04654470e-01 3.66889358e-01 3.66889358e-01 3.66889358e-01
      3.53426576e-01 3.53426576e-01 3.53426576e-01 3.53426576e-01
      3.53426576e-01 3.53426576e-01 3.53426576e-01 2.68936962e-01
      2.23090410e-01 1.63316533e-01 2.37020418e-01 3.70491564e-01
      2.64605314e-01 4.03225899e-01 4.03225899e-01 4.03225899e-01
      4.03225899e-01 2.35534310e-01 1.57026142e-01 1.36375234e-01
      3.03762376e-01 3.11615139e-01 3.95360410e-01 4.45299685e-01
      4.45299685e-01 4.45299685e-01 1.08331382e-01 1.16142921e-01
      3.44060749e-01 4.01658833e-01 4.01658833e-01 4.01658833e-01
      4.01658833e-01 4.01658833e-01 2.14108050e-01 1.07838713e-01
      3.17944199e-01 2.28666291e-01 1.91139802e-01 3.66611987e-01
      3.66611987e-01 3.66611987e-01 3.66611987e-01 3.66611987e-01
      3.66611987e-01 3.86355728e-01 1.04620814e-01 2.34588712e-01
      2.31906250e-01 3.95139873e-01 3.20127904e-01 3.95139873e-01
      3.95139873e-01 3.95139873e-01 3.56001467e-01 3.56001467e-01
      3.56001467e-01 3.56001467e-01 3.56001467e-01 2.40743741e-01
      2.26552650e-01 3.56001467e-01 3.56001467e-01 3.32778692e-01
      3.32778692e-01 3.32778692e-01 3.32778692e-01 3.32778692e-01
      3.32778692e-01 3.32778692e-01 3.32778692e-01 3.32778692e-01
      3.42025369e-01 3.42025369e-01 3.42025369e-01 2.62020439e-01
      3.42025369e-01 3.42025369e-01 3.42025369e-01 3.42025369e-01
      3.30240011e-01 3.28460187e-01 3.04164618e-01 3.57182533e-01
      1.75881311e-01 2.07750916e-01 3.85380894e-01 3.85380894e-01
      3.85380894e-01 3.85380894e-01 3.43840867e-01 3.42762679e-01
      2.60581464e-01 3.19086820e-01 3.43840867e-01 3.43840867e-01
      3.43840867e-01 3.43840867e-01 3.43840867e-01 3.92045259e-01
      3.92045259e-01 2.97428846e-01 2.45655090e-01 2.25462511e-01
      1.88833535e-01 3.82078201e-01 3.92045259e-01 3.92045259e-01
      2.82479107e-01 1.14214323e-01 1.88355520e-01 1.73859641e-01
      3.93528968e-01 4.13056999e-01 4.13056999e-01 4.13056999e-01
      4.13056999e-01 2.41219997e-01 4.02853578e-01 4.02853578e-01
      4.02853578e-01 4.02853578e-01 4.02853578e-01 2.90726572e-01
      1.34200960e-01 1.54277295e-01 2.75521696e-01 3.71724904e-01
      3.71724904e-01 3.71724904e-01 3.71724904e-01 3.71724904e-01
      2.90771753e-01 3.09042245e-01 2.22309753e-01 3.01643759e-01
      3.51701349e-01 3.51701349e-01 3.51701349e-01 3.51701349e-01
      3.51701349e-01 3.51701349e-01 3.51701349e-01 1.99098721e-01
      3.32778692e-01 3.32778692e-01 3.32778692e-01 3.32778692e-01
      3.32778692e-01 3.32778692e-01 3.32778692e-01 3.32778692e-01
      3.32778692e-01 3.10436815e-01 3.30768704e-01 3.36125553e-01
      3.36125553e-01 3.36125553e-01 3.36125553e-01 3.36125553e-01
      3.36125553e-01 3.36125553e-01 3.28716993e-01 2.74818212e-01
      3.40800554e-01 3.40800554e-01 3.40800554e-01 3.40800554e-01
      3.40800554e-01 3.40800554e-01 3.40800554e-01 2.69783407e-01
      3.60822886e-01 3.60822886e-01 3.60822886e-01 3.60822886e-01
      3.60822886e-01 3.60822886e-01 2.54837513e-01 2.78407574e-01
      3.75442594e-01 3.75442594e-01 3.75442594e-01 2.95711845e-01
      1.89528778e-01 3.22937012e-01 3.75442594e-01 2.52603084e-01
      3.75442594e-01</_>
    <_>
      3.39056104e-01 3.39056104e-01 3.39056104e-01 3.39056104e-01
      3.39056104e-01 2.77380615e-01 3.39056104e-01 3.39056104e-01
      3.39056104e-01 3.32778692e-01 3.32778692e-01 3.32778692e-01
      3.32778692e-01 3.32778692e-01 3.32778692e-01 3.32778692e-01
      3.32778692e-01 3.32778692e-01 3.40812624e-01 3.40812624e-01
      3.40812624e-01 3.40812624e-01 3.40812624e-01 3.40812624e-01
      3.40812624e-01 2.59555340e-01 3.40812624e-01 3.95954788e-01
      3.95954788e-01 2.79595792e-01 2.27444276e-01 1.58471704e-01
      2.39009574e-01 3.95954788e-01 3.95954788e-01 3.95954788e-01
      4.22401339e-01 2.64994889e-01 1.03800260e-01 1.43956363e-01
      3.38923305e-01 2.55929112e-01 4.22401339e-01 4.22401339e-01
      4.22401339e-01 3.49814236e-01 3.49814236e-01 2.46341616e-01
      2.81479627e-01 3.49814236e-01 3.49814236e-01 3.49814236e-01
      3.49814236e-01 3.49814236e-01 3.63317549e-01 3.63317549e-01
      3.21051091e-01 2.18843639e-01 2.98091084e-01 3.10720682e-01
      3.63317549e-01 3.63317549e-01 3.63317549e-01 3.32778692e-01
      3.32778692e-01 3.32778692e-01 3.32778692e-01 3.32778692e-01
      3.32778692e-01 3.32778692e-01 3.32778692e-01 3.32778692e-01
      2.64866740e-01 4.01754916e-01 4.01754916e-01 4.01754916e-01
      4.01754916e-01 4.01754916e-01 2.38517046e-01 1.34306639e-01
      2.09447712e-01 4.81679350e-01 4.81679350e-01 4.81679350e-01
      4.81679350e-01 1.65413111e-01 8.63509774e-02 4.83930185e-02
      6.44998401e-02 1.60651937e-01 4.30898428e-01 4.30898428e-01
      4.30898428e-01 2.01521799e-01 1.80849638e-02 4.49066907e-02
      1.56120360e-01 4.30898428e-01 4.30898428e-01 4.37088102e-01
      1.51222467e-01 8.69916677e-02 6.65660650e-02 8.51466507e-02
      1.45819485e-01 4.96860653e-01 4.96860653e-01 4.96860653e-01
      4.55249399e-01 4.55249399e-01 1.54563114e-01 8.96719173e-02
      9.30081755e-02 1.30736306e-01 3.29804838e-01 4.55249399e-01
      4.55249399e-01 4.34852183e-01 3.91575515e-01 8.87225196e-02
      1.17485277e-01 1.09709732e-01 2.28535518e-01 4.34852183e-01
      4.34852183e-01 4.34852183e-01 2.88595080e-01 4.19558436e-01
      4.19558436e-01 4.19558436e-01 4.19558436e-01 2.33455181e-01
      2.27121353e-01 1.67632580e-01 2.72430658e-01 1.96932465e-01
      2.50679582e-01 4.16169882e-01 4.16169882e-01 4.16169882e-01
      4.16169882e-01 4.11370307e-01 1.13090701e-01 1.39339224e-01
      1.23605862e-01 3.81254286e-01 3.81254286e-01 3.81254286e-01
      3.81254286e-01 3.81254286e-01 3.81254286e-01 2.59910762e-01
      2.03052133e-01 1.68964952e-01 3.67026925e-01 3.67026925e-01
      3.67026925e-01 3.28357697e-01 3.47040981e-01 3.67026925e-01
      3.59250963e-01 2.67640293e-01 3.95212501e-01 2.78530419e-01
      2.56430954e-01 3.95212501e-01 3.95212501e-01 1.78223521e-01
      1.99969023e-01 3.95212501e-01 3.95212501e-01 3.97141427e-01
      3.97141427e-01 3.88155550e-01 1.71881154e-01 1.98119894e-01
      1.94635987e-01 3.28336209e-01 3.97141427e-01 3.97141427e-01
      4.06530440e-01 1.60147399e-01 4.90297042e-02 7.27617517e-02
      7.99114406e-02 1.39659941e-01 5.06766081e-01 5.06766081e-01
      5.06766081e-01 4.57063675e-01 4.57063675e-01 4.57063675e-01
      4.57063675e-01 1.76765352e-01 1.43815950e-01 1.50549725e-01
      1.40739202e-01 2.55741924e-01 2.82332331e-01 3.47139120e-01
      4.04716015e-01 3.38000685e-01 4.04716015e-01 4.04716015e-01
      4.04716015e-01 1.17499009e-01 1.11843735e-01 7.02796057e-02
      4.14835811e-02 7.27915168e-02 9.39328745e-02 4.63563353e-01
      4.63563353e-01 4.63563353e-01 4.40690428e-01 3.68383914e-01
      2.85925597e-01 1.64844185e-01 9.90578905e-02 1.18708633e-01
      2.41600960e-01 4.48419064e-01 4.48419064e-01 4.48419064e-01
      4.48419064e-01 3.80340487e-01 3.80340487e-01 1.51764944e-01
      2.18481466e-01 3.80340487e-01 2.39750251e-01 3.80340487e-01
      3.80340487e-01 3.80340487e-01 4.14074481e-01 2.90952414e-01
      2.08278313e-01 1.39906108e-01 2.72332460e-01 2.97087699e-01
      4.14074481e-01 4.14074481e-01 4.14074481e-01 3.74305487e-01
      3.47790867e-01 2.00380281e-01 1.40791506e-01 3.38827997e-01
      3.74305487e-01 3.74305487e-01 3.74305487e-01 3.74305487e-01
      3.32778692e-01 3.32778692e-01 3.32778692e-01 3.32778692e-01
      3.32778692e-01 3.32778692e-01 3.32778692e-01 3.32778692e-01
      3.32778692e-01 1.99875861e-01 1.90515563e-01 4.00429636e-01
      4.00429636e-01 4.00429636e-01 4.00429636e-01 4.00429636e-01
      3.18166345e-01 1.29630268e-01 2.79594958e-01 7.14145899e-02
      3.44936252e-01 3.73498112e-01 2.59997308e-01 3.83020729e-01
      3.83020729e-01 3.83020729e-01 3.83020729e-01 3.86044681e-01
      3.86044681e-01 3.63176376e-01 3.16343963e-01 2.35587791e-01
      2.05247879e-01 2.65372306e-01 3.86044681e-01 3.86044681e-01
      4.08084393e-01 4.08084393e-01 2.38953888e-01 2.24857181e-01
      3.41513544e-01 2.50081778e-01 2.07267210e-01 4.08084393e-01
      4.08084393e-01 4.48493719e-01 1.84423164e-01 9.41594914e-02
      7.50980228e-02 2.03600407e-01 1.39813006e-01 4.77690220e-01
      4.77690220e-01 4.77690220e-01 5.22673607e-01 1.58379957e-01
      8.96621719e-02 2.46609636e-02 1.00143641e-01 1.17204733e-01
      3.43102932e-01 5.22673607e-01 5.22673607e-01 3.36153805e-01
      3.36153805e-01 3.36153805e-01 3.36153805e-01 3.36153805e-01
      3.04378539e-01 3.36153805e-01 3.36153805e-01 3.36153805e-01
      3.60781580e-01 3.60781580e-01 3.60781580e-01 3.60781580e-01
      3.60781580e-01 2.44365275e-01 2.37205833e-01 3.15332294e-01
      3.60781580e-01 3.51995140e-01 3.51995140e-01 3.51995140e-01
      3.51995140e-01 3.51995140e-01 3.51995140e-01 3.06796521e-01
      1.87230051e-01 3.51995140e-01 1.98342264e-01 3.68139923e-01
      4.78329509e-01 4.78329509e-01 4.78329509e-01 2.23312587e-01
      1.70660555e-01 1.75096855e-01 1.55903950e-01 3.41904670e-01
      3.41904670e-01 3.41904670e-01 3.41904670e-01 3.41904670e-01
      2.57354885e-01 3.34754616e-01 3.41904670e-01 3.41904670e-01
      3.44765514e-01 3.30740988e-01 3.00183654e-01 2.89613456e-01
      3.44765514e-01 3.44765514e-01 3.44765514e-01 3.44765514e-01
      3.44765514e-01 3.35774660e-01 3.35774660e-01 3.35774660e-01
      3.35774660e-01 3.35774660e-01 3.35774660e-01 3.07714313e-01
      3.35774660e-01 3.35774660e-01 3.58091801e-01 3.58091801e-01
      3.34077328e-01 1.67653784e-01 3.58091801e-01 2.95513839e-01
      3.58091801e-01 3.58091801e-01 3.58091801e-01 4.14910287e-01
      4.14910287e-01 2.56911755e-01 1.64053902e-01 2.25918800e-01
      1.65083438e-01 3.68841231e-01 4.14910287e-01 4.14910287e-01
      3.32778692e-01 3.32778692e-01 3.32778692e-01 3.32778692e-01
      3.32778692e-01 3.32778692e-01 3.32778692e-01 3.32778692e-01
      3.32778692e-01 3.22229385e-01 3.38584572e-01 3.38584572e-01
      3.38584572e-01 3.38584572e-01 3.38584572e-01 3.38584572e-01
      3.38584572e-01 3.00513953e-01 3.42051595e-01 3.42051595e-01
      3.02858084e-01 2.93025911e-01 3.42051595e-01 3.42051595e-01
      3.42051595e-01 3.42051595e-01 3.42051595e-01 3.50960761e-01
      3.50960761e-01 2.64668018e-01 2.53436655e-01 3.50960761e-01
      3.50960761e-01 3.50960761e-01 3.50960761e-01 3.50960761e-01
      3.44631642e-01 3.44631642e-01 3.44631642e-01 3.06290656e-01
      3.44631642e-01 3.44631642e-01 3.44631642e-01 3.44631642e-01
      2.67106295e-01</_>
    <_>
      3.38571459e-01 2.82085031e-01 3.38571459e-01 3.38571459e-01
      3.38571459e-01 3.38571459e-01 3.38571459e-01 3.38571459e-01
      3.38571459e-01 3.25961709e-01 3.37806851e-01 3.37806851e-01
      3.37806851e-01 3.02621216e-01 3.37806851e-01 3.37806851e-01
      3.37806851e-01 3.37806851e-01 3.84713978e-01 4.42479044e-01
      4.42479044e-01 3.98451477e-01 3.01470131e-01 1.73589647e-01
      2.30319038e-01 1.82455406e-01 2.99802929e-01 4.94215727e-01
      4.94215727e-01 4.94215727e-01 2.32772574e-01 1.18182376e-01
      1.38377607e-01 1.59771770e-01 1.52022332e-01 3.55500042e-01
      3.32778692e-01 3.32778692e-01 3.32778692e-01 3.32778692e-01
      3.32778692e-01 3.32778692e-01 3.32778692e-01 3.32778692e-01
      3.32778692e-01 3.32778692e-01 3.32778692e-01 3.32778692e-01
      3.32778692e-01 3.32778692e-01 3.32778692e-01 3.32778692e-01
      3.32778692e-01 3.32778692e-01 4.15599078e-01 4.15599078e-01
      2.98275888e-01 1.71922237e-01 3.21326464e-01 2.27642849e-01
      1.77088588e-01 4.15599078e-01 4.15599078e-01 3.40916127e-01
      3.40916127e-01 3.40916127e-01 2.67200142e-01 3.40916127e-01
      3.34112585e-01 3.40916127e-01 3.40916127e-01 3.40916127e-01
      3.32778692e-01 3.32778692e-01 3.32778692e-01 3.32778692e-01
      3.32778692e-01 3.32778692e-01 3.32778692e-01 3.32778692e-01
      3.32778692e-01 2.81808347e-01 5.72074354e-01 5.72074354e-01
      4.23595250e-01 1.98555425e-01 8.18355978e-02 8.47540423e-02
      9.48761180e-02 1.36361420e-01 2.25503787e-01 5.69518447e-01
      5.69518447e-01 4.64945078e-01 1.80824667e-01 6.37426972e-02
      7.48113915e-02 9.74758714e-02 1.63479745e-01 3.85226339e-01
      3.85226339e-01 3.85226339e-01 1.70067802e-01 1.62362009e-01
      2.24657312e-01 3.85226339e-01 3.85226339e-01 3.85226339e-01
      4.05653924e-01 4.05653924e-01 3.67072225e-01 1.78286955e-01
      1.33719921e-01 1.76336601e-01 3.49604487e-01 4.05653924e-01
      4.05653924e-01 4.52765048e-01 4.52765048e-01 4.52765048e-01
      1.81816742e-01 1.48437276e-01 1.98260501e-01 1.03725724e-01
      2.65208542e-01 4.52765048e-01 2.33628750e-01 4.05006230e-01
      4.05006230e-01 4.05006230e-01 2.88471460e-01 2.81566083e-01
      4.05006230e-01 3.12427670e-01 1.58572569e-01 3.39920461e-01
      3.39920461e-01 3.39920461e-01 3.39920461e-01 3.34408373e-01
      3.39920461e-01 3.39920461e-01 3.39920461e-01 2.75596410e-01
      3.74462843e-01 3.74462843e-01 3.74462843e-01 3.02732915e-01
      1.69299752e-01 1.86050579e-01 3.74462843e-01 3.74462843e-01
      3.74462843e-01 1.84315383e-01 4.13893223e-01 4.13893223e-01
      4.02320176e-01 1.73410520e-01 2.14272067e-01 4.13893223e-01
      4.13893223e-01 1.97021708e-01 3.38981330e-01 3.38981330e-01
      3.38981330e-01 3.38981330e-01 3.38981330e-01 2.78112322e-01
      3.38981330e-01 3.38981330e-01 3.38981330e-01 3.33133727e-01
      3.33133727e-01 3.29919368e-01 3.33133727e-01 3.33133727e-01
      3.33133727e-01 3.33133727e-01 3.33133727e-01 3.33133727e-01
      3.49041790e-01 3.49041790e-01 3.49041790e-01 2.37711787e-01
      3.24321747e-01 3.22242320e-01 3.49041790e-01 3.49041790e-01
      3.49041790e-01 3.70830953e-01 4.27325934e-01 4.27325934e-01
      4.27325934e-01 4.06990558e-01 1.21755250e-01 2.27709860e-01
      1.96759671e-01 1.98397428e-01 1.31701335e-01 3.61668676e-01
      3.61668676e-01 3.61668676e-01 3.61668676e-01 2.88915217e-01
      3.61668676e-01 3.61668676e-01 3.32782418e-01 1.04488648e-01
      9.32142213e-02 6.27918392e-02 5.95218763e-02 7.85057470e-02
      1.57227606e-01 6.16456628e-01 6.16456628e-01 4.19322699e-01
      4.28497702e-01 4.28497702e-01 9.76731703e-02 1.36722758e-01
      1.49382010e-01 1.64681330e-01 4.28497702e-01 4.28497702e-01
      4.28497702e-01 3.97037596e-01 3.92922223e-01 3.03667933e-01
      2.06520423e-01 1.95462495e-01 1.72735229e-01 4.00443405e-01
      4.00443405e-01 4.00443405e-01 3.79464716e-01 3.79464716e-01
      3.05777282e-01 2.20738322e-01 2.84797668e-01 2.30014548e-01
      3.79464716e-01 3.79464716e-01 3.79464716e-01 4.56901371e-01
      2.47975066e-01 1.27520517e-01 7.03073367e-02 6.49686977e-02
      2.71078527e-01 4.56901371e-01 4.56901371e-01 4.56901371e-01
      3.32778692e-01 3.32778692e-01 3.32778692e-01 3.32778692e-01
      3.32778692e-01 3.32778692e-01 3.32778692e-01 3.32778692e-01
      3.32778692e-01 2.05923289e-01 2.42988467e-01 2.67241836e-01
      2.60626704e-01 4.00570840e-01 4.00570840e-01 4.00570840e-01
      4.00570840e-01 3.36716563e-01 2.76612431e-01 2.88455367e-01
      3.66713673e-01 2.87620664e-01 2.85473466e-01 3.66713673e-01
      3.66713673e-01 3.66713673e-01 3.66713673e-01 3.48668605e-01
      3.48668605e-01 2.52808899e-01 2.96343148e-01 3.39655995e-01
      3.48668605e-01 3.48668605e-01 3.48668605e-01 3.48668605e-01
      2.03452006e-01 3.58489633e-01 3.58489633e-01 2.35418424e-01
      3.58489633e-01 3.58489633e-01 3.58489633e-01 3.58489633e-01
      3.58489633e-01 3.42787474e-01 3.42787474e-01 3.42787474e-01
      2.37800553e-01 3.42787474e-01 3.42787474e-01 3.42787474e-01
      3.42787474e-01 3.42787474e-01 3.49375039e-01 3.31003845e-01
      2.16791511e-01 2.17971921e-01 3.66116196e-01 3.66116196e-01
      3.66116196e-01 3.66116196e-01 3.66116196e-01 3.58679056e-01
      2.12419271e-01 1.71251550e-01 2.12522894e-01 3.51906151e-01
      3.94952744e-01 3.94952744e-01 3.94952744e-01 3.94952744e-01
      3.51964712e-01 3.51964712e-01 2.76652575e-01 2.29766726e-01
      3.51964712e-01 3.51964712e-01 3.51964712e-01 3.51964712e-01
      3.51964712e-01 3.32778692e-01 3.32778692e-01 3.32778692e-01
      3.32778692e-01 3.32778692e-01 3.32778692e-01 3.32778692e-01
      3.32778692e-01 3.32778692e-01 1.58031285e-01 2.33269677e-01
      4.01832163e-01 4.01832163e-01 4.01832163e-01 4.01832163e-01
      4.01832163e-01 2.09468186e-01 2.55684674e-01 3.40587050e-01
      2.73936391e-01 3.41940522e-01 3.22494745e-01 3.41940522e-01
      3.41940522e-01 3.41940522e-01 3.41940522e-01 3.41940522e-01
      3.43804687e-01 3.43804687e-01 3.43804687e-01 2.66492426e-01
      3.43804687e-01 3.43804687e-01 3.13265085e-01 3.43804687e-01
      3.43804687e-01 3.77746075e-01 3.77746075e-01 2.47189581e-01
      1.83567867e-01 2.12776035e-01 3.77746075e-01 3.77746075e-01
      3.77746075e-01 3.77746075e-01 4.03996319e-01 2.00367644e-01
      1.43008634e-01 1.31114125e-01 4.03996319e-01 3.19545567e-01
      4.03996319e-01 4.03996319e-01 4.03996319e-01 3.85542870e-01
      3.85542870e-01 3.40029716e-01 1.80950686e-01 2.55657732e-01
      1.98008880e-01 3.85542870e-01 3.85542870e-01 3.85542870e-01
      3.64938110e-01 3.64938110e-01 3.64938110e-01 3.64938110e-01
      3.64938110e-01 3.64938110e-01 2.72460282e-01 2.06875786e-01
      2.83271551e-01 2.21195340e-01 3.46683562e-01 3.46683562e-01
      3.46683562e-01 3.46683562e-01 3.46683562e-01 3.46683562e-01
      3.26009870e-01 3.46683562e-01 1.80061072e-01 2.17443794e-01
      3.70131969e-01 3.70131969e-01 3.70131969e-01 3.70131969e-01
      3.70131969e-01 3.70131969e-01 3.07590961e-01 3.32778692e-01
      3.32778692e-01 3.32778692e-01 3.32778692e-01 3.32778692e-01
      3.32778692e-01 3.32778692e-01 3.32778692e-01 3.32778692e-01
      3.38917226e-01 3.20476383e-01 2.99757272e-01 3.38917226e-01
      3.38917226e-01 3.38917226e-01 3.38917226e-01 3.38917226e-01
      3.38917226e-01</_>
    <_>
      3.39400142e-01 3.39400142e-01 3.39400142e-01 3.39400142e-01
      3.39400142e-01 3.39400142e-01 3.39400142e-01 3.39400142e-01
      2.73987651e-01 3.32778692e-01 3.32778692e-01 3.32778692e-01
      3.32778692e-01 3.32778692e-01 3.32778692e-01 3.32778692e-01
      3.32778692e-01 3.32778692e-01 3.42944115e-01 3.42944115e-01
      3.42944115e-01 3.42944115e-01 3.40186030e-01 2.88867027e-01
      3.19981605e-01 3.27049583e-01 3.42944115e-01 3.40060204e-01
      3.40060204e-01 3.40060204e-01 3.40060204e-01 3.40060204e-01
      3.40060204e-01 3.40060204e-01 2.67347842e-01 3.40060204e-01
      3.78752351e-01 3.78752351e-01 3.78752351e-01 3.78752351e-01
      2.56449133e-01 2.33902782e-01 3.39575768e-01 2.46434718e-01
      3.54801863e-01 4.00592059e-01 4.77461904e-01 4.77461904e-01
      4.77461904e-01 1.86317354e-01 1.83543772e-01 1.09807320e-01
      1.60193294e-01 2.11483687e-01 3.61458093e-01 3.61458093e-01
      3.61458093e-01 2.45042920e-01 3.43929052e-01 3.25933635e-01
      2.41998076e-01 3.61458093e-01 3.61458093e-01 3.38001341e-01
      2.87512541e-01 3.38001341e-01 3.38001341e-01 3.38001341e-01
      3.38001341e-01 3.38001341e-01 3.38001341e-01 3.38001341e-01
      2.34600678e-01 3.03467125e-01 2.78689295e-01 1.96163476e-01
      3.23681146e-01 3.96230519e-01 3.96230519e-01 3.96230519e-01
      3.96230519e-01 2.89796859e-01 3.88824403e-01 3.88824403e-01
      3.88824403e-01 2.39599377e-01 3.67708325e-01 2.70945132e-01
      3.56678158e-01 2.55602092e-01 4.95744377e-01 5.41722775e-01
      5.41722775e-01 2.05161676e-01 1.29661053e-01 1.33717194e-01
      1.01847976e-01 7.92323798e-02 2.61660039e-01 3.41392159e-01
      3.41392159e-01 3.41392159e-01 3.09635460e-01 2.91332662e-01
      3.41392159e-01 3.41392159e-01 3.41392159e-01 3.41392159e-01
      3.52160275e-01 3.52160275e-01 3.52160275e-01 2.62586713e-01
      2.43745178e-01 3.52160275e-01 3.52160275e-01 3.52160275e-01
      3.52160275e-01 4.23684359e-01 4.23684359e-01 3.72069657e-01
      2.01463774e-01 2.35884652e-01 1.57229558e-01 1.35453254e-01
      4.23684359e-01 4.23684359e-01 3.37626547e-01 3.37626547e-01
      3.37626547e-01 3.37626547e-01 2.91020542e-01 3.37626547e-01
      3.37626547e-01 3.37626547e-01 3.37626547e-01 3.36107939e-01
      3.36107939e-01 3.36107939e-01 3.36107939e-01 3.36107939e-01
      3.04784209e-01 3.36107939e-01 3.36107939e-01 3.36107939e-01
      4.23040450e-01 4.23040450e-01 4.23040450e-01 4.23040450e-01
      3.82647574e-01 1.42970234e-01 1.04677081e-01 1.71850324e-01
      2.69391537e-01 1.59691855e-01 5.55128634e-01 5.55128634e-01
      5.55128634e-01 9.59012285e-02 1.03706300e-01 7.55243078e-02
      6.02291450e-02 1.23158880e-01 4.01299775e-01 4.01299775e-01
      4.01299775e-01 3.18707854e-01 8.91510397e-02 1.42962933e-01
      2.46622220e-01 4.01299775e-01 4.01299775e-01 4.11484957e-01
      4.11484957e-01 3.66540223e-01 1.61268473e-01 1.98276073e-01
      2.48394221e-01 2.39243731e-01 4.11484957e-01 4.11484957e-01
      3.97400707e-01 3.97400707e-01 3.97400707e-01 3.15136164e-01
      2.38525137e-01 1.48891211e-01 1.67390734e-01 3.97400707e-01
      3.97400707e-01 2.46931627e-01 4.47054297e-01 4.47054297e-01
      4.47054297e-01 3.50069821e-01 1.95457548e-01 2.84243137e-01
      2.54951477e-01 1.68640524e-01 3.58753592e-01 3.58753592e-01
      3.58753592e-01 3.58753592e-01 3.32201898e-01 3.30058813e-01
      3.58753592e-01 3.27840805e-01 1.61611527e-01 4.06109095e-01
      2.58875608e-01 2.92659372e-01 2.49520972e-01 2.50738621e-01
      2.41760254e-01 4.06109095e-01 4.06109095e-01 4.06109095e-01
      2.30917946e-01 3.77615809e-01 4.45379794e-01 2.77363986e-01
      1.02534510e-01 2.59463280e-01 4.45379794e-01 4.45379794e-01
      2.23113537e-01 3.48781735e-01 3.48781735e-01 3.48781735e-01
      3.48781735e-01 1.86811060e-01 3.31777036e-01 3.48781735e-01
      3.48781735e-01 3.48781735e-01 3.33010942e-01 3.33010942e-01
      3.33010942e-01 3.30911309e-01 3.33010942e-01 3.33010942e-01
      3.33010942e-01 3.33010942e-01 3.33010942e-01 3.99677783e-01
      2.65425056e-01 2.14184090e-01 2.74056852e-01 2.48922586e-01
      3.21936160e-01 3.99677783e-01 3.99677783e-01 3.99677783e-01
      3.51847738e-01 3.51847738e-01 3.51847738e-01 3.47974986e-01
      3.51847738e-01 1.64317742e-01 3.24987292e-01 3.51847738e-01
      3.51847738e-01 2.28175625e-01 3.53514522e-01 3.53514522e-01
      3.53514522e-01 3.53514522e-01 3.53514522e-01 3.53514522e-01
      3.53514522e-01 2.63810873e-01 1.49009928e-01 2.00253397e-01
      1.54109105e-01 1.13533758e-01 2.14559048e-01 3.79074097e-01
      5.33746243e-01 5.33746243e-01 3.69082481e-01 4.07344431e-01
      3.99536401e-01 1.23649597e-01 1.01727396e-01 7.83807114e-02
      1.59843281e-01 4.51883554e-01 4.51883554e-01 4.51883554e-01
      3.87029022e-01 3.87029022e-01 2.86068261e-01 2.32482791e-01
      2.15526372e-01 2.54639506e-01 3.87029022e-01 3.87029022e-01
      3.87029022e-01 3.32778692e-01 3.32778692e-01 3.32778692e-01
      3.32778692e-01 3.32778692e-01 3.32778692e-01 3.32778692e-01
      3.32778692e-01 3.32778692e-01 4.32806671e-01 1.98594391e-01
      1.13874704e-01 8.34444836e-02 1.26620263e-01 2.68892825e-01
      4.69143301e-01 4.69143301e-01 4.69143301e-01 3.40996206e-01
      3.40996206e-01 3.40996206e-01 2.57615387e-01 3.40996206e-01
      3.40996206e-01 3.40996206e-01 3.40996206e-01 3.40996206e-01
      2.63324350e-01 2.16235623e-01 2.60840058e-01 2.61308908e-01
      3.85675907e-01 3.85675907e-01 3.85675907e-01 3.85675907e-01
      3.85675907e-01 2.96169400e-01 2.46080115e-01 3.27760160e-01
      3.51376116e-01 3.51376116e-01 3.51376116e-01 3.51376116e-01
      3.51376116e-01 3.51376116e-01 3.32778692e-01 3.32778692e-01
      3.32778692e-01 3.32778692e-01 3.32778692e-01 3.32778692e-01
      3.32778692e-01 3.32778692e-01 3.32778692e-01 2.09417954e-01
      1.37175068e-01 1.71119332e-01 2.31645390e-01 4.12375122e-01
      4.12375122e-01 4.12375122e-01 4.12375122e-01 4.12375122e-01
      3.43703121e-01 3.43703121e-01 3.43703121e-01 2.26961046e-01
      3.43703121e-01 3.43703121e-01 3.43703121e-01 3.43703121e-01
      3.43703121e-01 3.54376733e-01 3.54376733e-01 3.05451661e-01
      1.55173287e-01 3.54376733e-01 3.54376733e-01 3.54376733e-01
      3.54376733e-01 3.54376733e-01 3.25742751e-01 1.76267251e-01
      1.42949179e-01 2.24886239e-01 3.96950334e-01 3.96950334e-01
      3.96950334e-01 3.96950334e-01 3.96950334e-01 3.75205547e-01
      3.75205547e-01 2.66308755e-01 2.53809392e-01 2.93210328e-01
      2.66540140e-01 3.75205547e-01 3.75205547e-01 3.75205547e-01
      3.32778692e-01 3.32778692e-01 3.32778692e-01 3.32778692e-01
      3.32778692e-01 3.32778692e-01 3.32778692e-01 3.32778692e-01
      3.32778692e-01 2.67514020e-01 3.61284494e-01 3.61284494e-01
      3.61284494e-01 3.61284494e-01 3.61284494e-01 3.61284494e-01
      2.66283214e-01 2.66009152e-01 2.02337638e-01 3.45616519e-01
      3.45616519e-01 3.45616519e-01 3.45616519e-01 3.45616519e-01
      3.45616519e-01 3.45616519e-01 3.45616519e-01 3.36452216e-01
      3.36452216e-01 3.36452216e-01 3.36452216e-01 3.36452216e-01
      3.36395621e-01 3.01787376e-01 3.36452216e-01 3.36452216e-01
      3.72050196e-01 3.72050196e-01 3.17788541e-01 1.48932338e-01
      2.90553212e-01 3.10780704e-01 3.72050196e-01 3.72050196e-01
      3.72050196e-01</_>
    <_>
      4.40601259e-01 4.40601259e-01 4.40601259e-01 4.40601259e-01
      3.26209009e-01 2.02588350e-01 1.47809938e-01 9.52489823e-02
      2.01758370e-01 1.82701319e-01 4.31809753e-01 4.31809753e-01
      4.31809753e-01 4.31809753e-01 3.97760987e-01 1.75228149e-01
      1.22039415e-01 1.12498119e-01 3.77838522e-01 3.88218910e-01
      3.88218910e-01 3.88218910e-01 3.88218910e-01 3.88218910e-01
      2.56070733e-01 1.21764526e-01 1.39252871e-01 3.40815872e-01
      3.40815872e-01 3.40815872e-01 3.40815872e-01 3.40815872e-01
      3.40815872e-01 3.19283038e-01 2.85595864e-01 3.40815872e-01
      3.36506397e-01 3.36506397e-01 3.36506397e-01 3.01239729e-01
      3.36506397e-01 3.36506397e-01 3.36506397e-01 3.36506397e-01
      3.36506397e-01 2.73605496e-01 2.34023720e-01 2.69467115e-01
      2.39571288e-01 2.97688872e-01 4.02407557e-01 4.02407557e-01
      4.02407557e-01 4.02407557e-01 1.98293164e-01 3.71623665e-01
      3.71623665e-01 3.71623665e-01 3.71623665e-01 3.71623665e-01
      3.71623665e-01 2.99574196e-01 1.96462274e-01 3.55430633e-01
      3.55430633e-01 3.55430633e-01 3.55430633e-01 2.85062581e-01
      2.59663552e-01 3.35256994e-01 3.22042257e-01 3.55430633e-01
      3.33196372e-01 3.33196372e-01 3.33196372e-01 3.33196372e-01
      3.33196372e-01 3.33196372e-01 3.33196372e-01 3.29412311e-01
      3.33196372e-01 3.55860412e-01 3.55860412e-01 3.55860412e-01
      3.55860412e-01 3.55860412e-01 3.55860412e-01 1.92578554e-01
      2.70003378e-01 3.55860412e-01 4.12235945e-01 4.12235945e-01
      2.32208356e-01 2.44809136e-01 2.07244799e-01 2.89946705e-01
      2.74328858e-01 4.12235945e-01 4.12235945e-01 3.88352901e-01
      3.88352901e-01 1.48598522e-01 1.34656101e-01 3.06097656e-01
      3.28817338e-01 3.88352901e-01 3.88352901e-01 3.88352901e-01
      3.41880172e-01 3.41880172e-01 3.41880172e-01 3.41880172e-01
      3.41880172e-01 2.48047546e-01 3.41880172e-01 3.41880172e-01
      3.41880172e-01 4.07198787e-01 4.38452393e-01 4.38452393e-01
      4.38452393e-01 4.25048053e-01 1.18614174e-01 9.17649120e-02
      8.96454975e-02 2.04684407e-01 3.42803150e-01 3.42803150e-01
      3.42803150e-01 3.42803150e-01 3.42803150e-01 3.42803150e-01
      3.42803150e-01 2.80750543e-01 3.08473885e-01 3.86725128e-01
      3.86725128e-01 3.86725128e-01 3.86725128e-01 3.66913825e-01
      2.70814359e-01 1.82618544e-01 1.47185907e-01 3.67330879e-01
      3.90175402e-01 3.90175402e-01 3.90175402e-01 3.90175402e-01
      3.38692904e-01 1.68201655e-01 1.94703460e-01 2.32387230e-01
      3.90175402e-01 4.01833624e-01 4.01833624e-01 2.09521592e-01
      2.32530668e-01 2.49278307e-01 1.68892607e-01 4.01833624e-01
      4.01833624e-01 4.01833624e-01 3.79990369e-01 6.02970980e-02
      8.71868953e-02 3.90157327e-02 1.18222266e-01 1.75737604e-01
      5.14086068e-01 5.14086068e-01 5.14086068e-01 4.79425162e-01
      2.16068894e-01 1.06758967e-01 5.40268533e-02 9.37472284e-02
      7.76334032e-02 4.79425162e-01 4.79425162e-01 4.79425162e-01
      3.75050068e-01 3.75050068e-01 3.75050068e-01 3.10520083e-01
      1.48767427e-01 2.14835897e-01 3.58094066e-01 3.75050068e-01
      3.75050068e-01 2.12223813e-01 3.71053964e-01 3.76970649e-01
      3.76970649e-01 3.76970649e-01 3.76970649e-01 3.76970649e-01
      2.82587379e-01 1.52065083e-01 2.53074318e-01 4.12343681e-01
      4.50621903e-01 4.50621903e-01 4.50621903e-01 2.71716207e-01
      2.20138162e-01 1.04437009e-01 1.38010859e-01 3.86175305e-01
      3.86175305e-01 3.86175305e-01 3.86175305e-01 1.69031456e-01
      5.42922541e-02 2.88829297e-01 3.86175305e-01 3.68162364e-01
      3.68538350e-01 3.68538350e-01 3.68538350e-01 3.68538350e-01
      1.83836952e-01 1.08528003e-01 3.68538350e-01 3.68538350e-01
      3.68538350e-01 4.87388670e-01 1.64597958e-01 6.58029392e-02
      8.66966601e-03 4.49279174e-02 1.06888473e-01 4.87388670e-01
      4.87388670e-01 4.87388670e-01 3.75419140e-01 1.46011055e-01
      1.04443870e-01 6.35558739e-02 4.99914885e-02 8.64715502e-02
      4.61796165e-01 5.45031428e-01 5.45031428e-01 3.44073802e-01
      3.44073802e-01 3.44073802e-01 3.44073802e-01 2.52767533e-01
      3.22433382e-01 3.44073802e-01 3.44073802e-01 3.44073802e-01
      2.24440798e-01 1.80933192e-01 3.97161454e-01 3.97161454e-01
      3.97161454e-01 3.97161454e-01 3.97161454e-01 2.41069585e-01
      2.57140219e-01 3.45328957e-01 3.16986084e-01 3.45328957e-01
      3.45328957e-01 2.56464303e-01 3.38796794e-01 3.45328957e-01
      3.45328957e-01 3.45328957e-01 2.76970983e-01 1.54890567e-01
      2.16929093e-01 1.95295930e-01 1.66972890e-01 2.84374624e-01
      5.56960523e-01 5.56960523e-01 2.81738669e-01 4.03242111e-01
      3.23310852e-01 2.49235153e-01 1.53962359e-01 1.58756614e-01
      3.60553294e-01 4.03242111e-01 4.03242111e-01 4.03242111e-01
      3.72202635e-01 3.72202635e-01 3.72202635e-01 1.62366480e-01
      2.97286838e-01 2.24344075e-01 3.72202635e-01 3.72202635e-01
      3.72202635e-01 3.35986197e-01 1.72148794e-01 2.09392399e-01
      2.38206059e-01 3.67137283e-01 3.93120110e-01 3.93120110e-01
      3.93120110e-01 3.93120110e-01 3.46913368e-01 3.46913368e-01
      3.46913368e-01 3.46913368e-01 3.19924325e-01 2.27464616e-01
      3.46913368e-01 3.46913368e-01 3.46913368e-01 3.32778692e-01
      3.32778692e-01 3.32778692e-01 3.32778692e-01 3.32778692e-01
      3.32778692e-01 3.32778692e-01 3.32778692e-01 3.32778692e-01
      1.88110486e-01 1.40681788e-01 1.20431319e-01 1.07142426e-01
      1.05959773e-01 2.73804754e-01 5.25166214e-01 5.25166214e-01
      5.25166214e-01 3.70901644e-01 1.48254588e-01 1.51384994e-01
      1.09039947e-01 2.45339558e-01 3.32453251e-01 4.58384901e-01
      4.58384901e-01 4.58384901e-01 4.06189293e-01 4.06189293e-01
      3.61036360e-01 1.21793158e-01 5.20505421e-02 1.51998028e-01
      4.06189293e-01 4.06189293e-01 4.06189293e-01 3.92118067e-01
      3.92118067e-01 3.92118067e-01 1.35965183e-01 7.55200461e-02
      2.22156212e-01 3.92118067e-01 3.92118067e-01 3.92118067e-01
      4.10034627e-01 4.10034627e-01 9.67475474e-02 8.86290520e-02
      1.34316698e-01 3.46418381e-01 4.10034627e-01 4.10034627e-01
      4.10034627e-01 4.46980953e-01 3.21502000e-01 1.25762790e-01
      1.05982937e-01 1.04363941e-01 2.34655485e-01 4.46980953e-01
      4.46980953e-01 4.46980953e-01 3.36392075e-01 3.02261233e-01
      3.36392075e-01 3.36392075e-01 3.36392075e-01 3.36392075e-01
      3.36392075e-01 3.36392075e-01 3.36392075e-01 4.40623254e-01
      1.93466887e-01 9.56111625e-02 1.11772187e-01 2.27253407e-01
      3.29082400e-01 4.40623254e-01 4.40623254e-01 4.40623254e-01
      3.76106262e-01 3.76106262e-01 2.61084229e-01 2.81859159e-01
      2.80637294e-01 2.50191957e-01 3.76106262e-01 3.76106262e-01
      3.76106262e-01 3.88869584e-01 3.88869584e-01 3.88869584e-01
      2.73413301e-01 1.73344314e-01 1.26272634e-01 3.45354110e-01
      3.88869584e-01 3.88869584e-01 3.81228924e-01 3.81228924e-01
      3.81228924e-01 2.93730170e-01 2.80303806e-01 2.21688583e-01
      2.35627532e-01 3.81228924e-01 3.81228924e-01 3.76595616e-01
      3.76595616e-01 1.92184269e-01 1.64773077e-01 2.84968615e-01
      3.76595616e-01 3.76595616e-01 3.76595616e-01 3.76595616e-01
      3.45370889e-01 2.78171510e-01 3.44863892e-01 3.03909272e-01
      3.33875179e-01 3.45370889e-01 3.45370889e-01 3.45370889e-01
      3.45370889e-01</_>
    <_>
      3.36429924e-01 3.36429924e-01 3.36429924e-01 3.36429924e-01
      3.36429924e-01 3.36429924e-01 3.36429924e-01 3.36429924e-01
      3.01923722e-01 3.44291389e-01 3.44291389e-01 3.44291389e-01
      2.19698682e-01 3.44291389e-01 3.44291389e-01 3.44291389e-01
      3.44291389e-01 3.44291389e-01 3.40816855e-01 3.40816855e-01
      3.13971341e-01 3.13010097e-01 3.40816855e-01 3.40816855e-01
      3.40816855e-01 3.40816855e-01 3.21099102e-01 4.06579584e-01
      4.06579584e-01 4.06579584e-01 4.06579584e-01 4.06579584e-01
      2.77851254e-01 1.67047858e-01 1.75025001e-01 1.83475703e-01
      3.47874373e-01 3.47874373e-01 3.47874373e-01 3.47874373e-01
      3.47874373e-01 3.23762506e-01 2.23113626e-01 3.40328008e-01
      3.47874373e-01 4.03268903e-01 3.74302745e-01 1.78535730e-01
      1.97318479e-01 3.27021509e-01 1.66171342e-01 4.03268903e-01
      4.03268903e-01 4.03268903e-01 3.47424954e-01 3.47424954e-01
      3.47424954e-01 3.47424954e-01 3.47424954e-01 2.69457012e-01
      2.81056762e-01 3.47424954e-01 3.47424954e-01 3.35537553e-01
      3.35537553e-01 3.35537553e-01 3.35537553e-01 3.35537553e-01
      3.35537553e-01 3.35537553e-01 3.09780538e-01 3.35537553e-01
      4.23144013e-01 4.23144013e-01 4.23144013e-01 2.56530166e-01
      1.69704258e-01 2.86700785e-01 2.55314052e-01 1.93855152e-01
      4.23144013e-01 4.06887680e-01 4.06887680e-01 4.06887680e-01
      1.43167347e-01 5.71157075e-02 5.32122627e-02 3.76240253e-01
      4.06887680e-01 4.06887680e-01 4.24798578e-01 4.24798578e-01
      4.24798578e-01 2.78197140e-01 1.81005090e-01 1.09016299e-01
      2.09307745e-01 3.28771085e-01 4.24798578e-01 3.58036965e-01
      3.58036965e-01 2.50518322e-01 2.23481759e-01 3.58036965e-01
      3.58036965e-01 3.58036965e-01 3.58036965e-01 3.38491559e-01
      3.55642170e-01 3.55642170e-01 3.55642170e-01 2.76563823e-01
      3.38486224e-01 2.71286160e-01 3.55642170e-01 3.55642170e-01
      3.15251380e-01 3.58923912e-01 3.58923912e-01 3.58923912e-01
      3.58923912e-01 3.41061741e-01 1.97263986e-01 2.61188895e-01
      3.58923912e-01 3.58923912e-01 2.19757944e-01 2.36574247e-01
      3.81138176e-01 3.81138176e-01 3.81138176e-01 3.81138176e-01
      3.81138176e-01 3.42170835e-01 2.20270008e-01 3.95425916e-01
      3.95425916e-01 3.95425916e-01 3.95425916e-01 3.80705863e-01
      1.69857651e-01 9.92087051e-02 1.74958482e-01 3.95425916e-01
      5.26225269e-01 5.26225269e-01 5.26225269e-01 1.51039243e-01
      1.03848480e-01 8.63064528e-02 1.06038257e-01 1.99060664e-01
      2.68495947e-01 5.01883447e-01 5.01883447e-01 2.90393025e-01
      2.37919927e-01 1.20428689e-01 1.05213463e-01 1.46850646e-01
      2.26394236e-01 5.01883447e-01 4.61626768e-01 4.61626768e-01
      1.31935313e-01 1.42344654e-01 1.82156757e-01 3.68724257e-01
      2.46692210e-01 2.97366053e-01 4.61626768e-01 3.96872282e-01
      3.96872282e-01 3.96872282e-01 1.86458677e-01 1.17717013e-01
      1.37847960e-01 3.75328034e-01 3.96872282e-01 3.96872282e-01
      4.05100673e-01 4.05100673e-01 4.05100673e-01 4.05100673e-01
      1.93211347e-01 5.67255765e-02 1.66024774e-01 3.27578217e-01
      4.05100673e-01 3.32778692e-01 3.32778692e-01 3.32778692e-01
      3.32778692e-01 3.32778692e-01 3.32778692e-01 3.32778692e-01
      3.32778692e-01 3.32778692e-01 3.75081897e-01 2.40865424e-01
      3.21804374e-01 2.48678192e-01 2.62919903e-01 3.08195949e-01
      3.94901603e-01 3.94901603e-01 3.94901603e-01 3.65148842e-01
      3.76525015e-01 2.95553744e-01 1.47967964e-01 2.27745101e-01
      3.67023140e-01 3.76525015e-01 3.76525015e-01 3.76525015e-01
      4.36198860e-01 4.36198860e-01 2.86223710e-01 2.99958438e-01
      2.07294568e-01 1.81528419e-01 3.48782152e-01 2.35293239e-01
      4.36198860e-01 6.04724765e-01 6.04724765e-01 2.82073826e-01
      1.00280613e-01 1.08010627e-01 1.77935317e-01 1.96919098e-01
      9.10611451e-02 2.87331671e-01 5.60823739e-01 5.60823739e-01
      1.74115047e-01 6.43427437e-03 1.89183187e-02 4.12294269e-03
      2.60020979e-02 1.39360458e-01 5.60823739e-01 5.70010543e-01
      5.70010543e-01 2.11589620e-01 2.43989266e-02 3.52676660e-02
      8.72609112e-03 1.12318778e-02 7.48129711e-02 5.40440261e-01
      3.47993404e-01 2.40413845e-01 3.01708996e-01 3.47993404e-01
      3.47993404e-01 3.47993404e-01 3.47993404e-01 3.47993404e-01
      3.47993404e-01 2.87578613e-01 1.18390620e-01 1.92079604e-01
      1.12182401e-01 1.12355620e-01 1.14718251e-01 5.23701131e-01
      5.23701131e-01 5.23701131e-01 3.09811354e-01 6.22019507e-02
      4.04403955e-02 2.16750093e-02 5.10486551e-02 6.62318021e-02
      5.43330550e-01 5.43330550e-01 5.43330550e-01 4.90966409e-01
      4.86657888e-01 5.08002229e-02 9.24163088e-02 3.47274765e-02
      6.69260249e-02 1.35313883e-01 4.90966409e-01 4.90966409e-01
      5.94423473e-01 5.94423473e-01 1.07435770e-01 4.17130142e-02
      5.47706941e-03 2.78101712e-02 3.44483107e-02 3.13571915e-02
      5.20701826e-01 5.64035416e-01 5.64035416e-01 7.60302544e-02
      1.22087440e-02 1.19102662e-02 1.60981249e-02 7.23298341e-02
      1.68515623e-01 5.64035416e-01 5.00211596e-01 5.00211596e-01
      4.51644391e-01 1.15697473e-01 3.46379466e-02 1.56399738e-02
      4.33409698e-02 1.53876022e-01 5.00211596e-01 1.33812189e-01
      3.58743101e-01 3.58743101e-01 3.58743101e-01 3.58743101e-01
      3.58743101e-01 3.58743101e-01 3.58743101e-01 2.78628320e-01
      2.71108180e-01 3.44572783e-01 3.44572783e-01 3.44572783e-01
      3.44572783e-01 3.44572783e-01 3.03224206e-01 3.44572783e-01
      3.44572783e-01 2.94013172e-01 3.44610482e-01 3.44610482e-01
      3.44610482e-01 3.44610482e-01 3.23314816e-01 3.05028677e-01
      3.44610482e-01 3.44610482e-01 3.73679727e-01 3.73679727e-01
      3.73679727e-01 3.73679727e-01 3.73679727e-01 1.04925849e-01
      1.43241867e-01 3.56258214e-01 3.73679727e-01 4.26431090e-01
      4.26431090e-01 2.58687913e-01 4.26431090e-01 4.26431090e-01
      2.44960397e-01 1.66176170e-01 1.12280875e-01 3.18150669e-01
      3.62963974e-01 3.62963974e-01 3.62963974e-01 3.62963974e-01
      3.62963974e-01 2.25649074e-01 2.57723898e-01 2.97619581e-01
      3.62963974e-01 3.61896485e-01 3.61896485e-01 3.61896485e-01
      3.61896485e-01 2.66877890e-01 1.13857828e-01 3.55503500e-01
      3.61896485e-01 3.61896485e-01 3.72625738e-01 3.72625738e-01
      3.72625738e-01 3.72625738e-01 3.72625738e-01 2.63319910e-01
      2.08156645e-01 3.22106868e-01 2.92588741e-01 3.33256245e-01
      3.33256245e-01 3.33256245e-01 3.28925967e-01 3.33256245e-01
      3.33256245e-01 3.33256245e-01 3.33256245e-01 3.33256245e-01
      3.73739868e-01 3.73739868e-01 3.73739868e-01 3.73739868e-01
      3.73739868e-01 3.73739868e-01 3.00234556e-01 1.37245968e-01
      2.21810237e-01 3.01245719e-01 4.65160906e-01 4.65160906e-01
      4.65160906e-01 4.65160906e-01 9.43301320e-02 8.43823403e-02
      9.55123231e-02 1.18173771e-01 3.66074324e-01 3.66074324e-01
      3.66074324e-01 3.66074324e-01 3.66074324e-01 1.41402781e-01
      2.39486560e-01 3.66074324e-01 3.39015692e-01 4.16170210e-01
      4.16170210e-01 4.16170210e-01 4.16170210e-01 4.16170210e-01
      1.41903773e-01 1.02175534e-01 1.30189419e-01 2.86929578e-01
      4.33900207e-01 3.53113294e-01 2.69524992e-01 3.00506324e-01
      1.70263886e-01 1.03571877e-01 3.21720153e-01 4.33900207e-01
      4.33900207e-01</_>
    <_>
      4.78692979e-01 4.78692979e-01 4.78692979e-01 1.21906690e-01
      7.85594657e-02 9.19146687e-02 1.14741236e-01 1.89694896e-01
      4.78692979e-01 4.35503811e-01 4.35503811e-01 3.57632369e-01
      9.06512737e-02 1.40060097e-01 2.08246469e-01 3.52820516e-01
      3.21052521e-01 4.35503811e-01 4.84696597e-01 4.84696597e-01
      4.84696597e-01 4.84696597e-01 1.69231996e-01 2.68673487e-02
      3.88372429e-02 8.88123289e-02 1.29145309e-01 3.47775728e-01
      3.47775728e-01 3.47775728e-01 2.92829812e-01 2.53259212e-01
      3.47775728e-01 3.47775728e-01 3.47775728e-01 3.47775728e-01
      3.34346414e-01 3.34346414e-01 3.34346414e-01 3.19935918e-01
      3.34346414e-01 3.34346414e-01 3.34346414e-01 3.34346414e-01
      3.34346414e-01 3.34420770e-01 3.37016851e-01 3.37016851e-01
      3.37016851e-01 3.37016851e-01 3.37016851e-01 3.37016851e-01
      2.99554527e-01 3.37016851e-01 2.13251352e-01 2.54300535e-01
      3.55829030e-01 3.55829030e-01 3.55829030e-01 3.55829030e-01
      3.55829030e-01 3.55829030e-01 3.55829030e-01 3.68698686e-01
      3.68698686e-01 3.68698686e-01 3.68698686e-01 3.68698686e-01
      3.18259060e-01 1.84494302e-01 2.12971717e-01 3.68698686e-01
      4.22988564e-01 4.22988564e-01 2.29813293e-01 1.65236875e-01
      4.22988564e-01 3.66316289e-01 2.17301473e-01 1.54101297e-01
      4.16826844e-01 3.91841501e-01 3.91841501e-01 3.91841501e-01
      3.91841501e-01 2.11544797e-01 1.20550521e-01 1.24753088e-01
      3.91841501e-01 3.91841501e-01 3.37219447e-01 3.37219447e-01
      3.37219447e-01 3.37219447e-01 2.94780076e-01 3.37219447e-01
      3.37219447e-01 3.37219447e-01 3.37219447e-01 3.59643966e-01
      3.59643966e-01 2.62103558e-01 2.17818528e-01 3.22801799e-01
      3.59643966e-01 3.59643966e-01 3.59643966e-01 3.59643966e-01
      3.51169586e-01 3.51169586e-01 3.51169586e-01 3.51169586e-01
      3.16414833e-01 3.16361517e-01 3.18366647e-01 2.79876411e-01
      3.51169586e-01 4.57450062e-01 4.57450062e-01 3.88298601e-01
      2.94190913e-01 9.57496092e-02 1.69874623e-01 1.69337779e-01
      2.52238303e-01 4.57450062e-01 4.34992701e-01 4.34992701e-01
      4.34992701e-01 3.64211619e-01 4.34992701e-01 2.57399529e-01
      1.62458956e-01 6.07383326e-02 9.89618152e-02 6.31117702e-01
      6.31117702e-01 3.27756226e-01 7.11812899e-02 8.59576762e-02
      9.28461999e-02 3.31024267e-02 5.52222170e-02 2.53839374e-01
      4.82782274e-01 4.82782274e-01 1.69288188e-01 5.22869565e-02
      5.13681546e-02 1.89646736e-01 1.78122580e-01 4.40700918e-01
      4.82782274e-01 4.90818590e-01 4.90818590e-01 6.33653551e-02
      4.84293737e-02 3.09620854e-02 5.83391786e-02 1.44095615e-01
      4.90818590e-01 4.90818590e-01 5.59875667e-01 1.50155693e-01
      3.27642933e-02 4.88672517e-02 3.10778152e-02 2.63786651e-02
      1.62348658e-01 5.59875667e-01 5.59875667e-01 5.33906043e-01
      5.33906043e-01 3.52863371e-01 6.54592738e-02 6.36132136e-02
      5.05968276e-03 2.99957301e-02 7.57074729e-02 5.33906043e-01
      5.65011978e-01 5.65011978e-01 1.40579909e-01 3.28285396e-02
      3.41021232e-02 4.73865680e-02 3.55741493e-02 1.05487935e-01
      5.65011978e-01 1.13948651e-01 1.71113044e-01 2.65842080e-01
      4.22069520e-01 4.22069520e-01 4.22069520e-01 4.22069520e-01
      3.54362607e-01 2.11433619e-01 3.81640881e-01 3.81640881e-01
      2.29416072e-01 1.49160638e-01 2.17733666e-01 3.81640881e-01
      3.81640881e-01 3.81640881e-01 3.81640881e-01 5.73795497e-01
      5.73795497e-01 3.03650089e-02 9.46865510e-03 1.28805516e-02
      8.62361956e-03 2.46810801e-02 6.84503764e-02 5.73795497e-01
      6.88783109e-01 1.71678588e-01 1.33640291e-02 6.28332933e-03
      1.04176197e-02 2.03603338e-02 2.44623702e-02 1.16045333e-01
      6.88783109e-01 6.68722689e-01 1.58347502e-01 8.51298496e-03
      8.91749468e-03 2.56738085e-02 4.01112027e-02 3.19440588e-02
      2.65385747e-01 6.68722689e-01 6.60207570e-01 4.21908438e-01
      1.02916919e-02 9.22982488e-03 2.03554947e-02 6.21869136e-03
      1.08877262e-02 3.36809643e-02 6.14516973e-01 6.01151824e-01
      4.35602754e-01 8.23901501e-03 1.42696677e-02 1.03628136e-01
      3.57943214e-02 3.84054035e-02 2.60219634e-01 6.01151824e-01
      2.16084152e-01 1.78197324e-01 1.33144751e-01 1.83634236e-01
      2.99443543e-01 4.40465122e-01 4.40465122e-01 4.40465122e-01
      4.40465122e-01 4.16750342e-01 2.45508417e-01 8.03591385e-02
      2.50429392e-01 2.07219630e-01 3.58784735e-01 4.16750342e-01
      4.16750342e-01 4.16750342e-01 5.55666029e-01 5.55666029e-01
      1.74679250e-01 3.94901000e-02 3.83710898e-02 4.61738780e-02
      1.88094199e-01 3.72617096e-01 4.08683300e-01 5.70433557e-01
      5.70433557e-01 1.21752873e-01 4.35908325e-02 2.53682416e-02
      1.14673590e-02 1.76539738e-02 1.76085234e-02 5.70433557e-01
      6.59055293e-01 2.86916792e-01 5.44983111e-02 4.52076681e-02
      4.27699462e-02 5.29460087e-02 4.54211198e-02 1.75162777e-01
      6.59055293e-01 6.04037464e-01 6.04037464e-01 1.23455070e-01
      1.51733801e-01 7.69354478e-02 3.01468950e-02 3.07803731e-02
      5.04701994e-02 4.64391381e-01 4.23002392e-01 4.23002392e-01
      3.20941120e-01 3.42867047e-01 1.34765223e-01 7.91067481e-02
      2.03937918e-01 4.15223122e-01 4.23002392e-01 3.33900899e-01
      3.33900899e-01 3.33900899e-01 3.33900899e-01 3.33900899e-01
      3.33900899e-01 3.33900899e-01 3.23644012e-01 3.33900899e-01
      3.45676959e-01 3.45676959e-01 3.04382324e-01 2.59710789e-01
      3.45676959e-01 3.45676959e-01 3.45676959e-01 3.45676959e-01
      3.45676959e-01 3.49256247e-01 3.49256247e-01 3.49256247e-01
      1.69087589e-01 3.49256247e-01 3.49256247e-01 3.49256247e-01
      3.49256247e-01 3.37728411e-01 3.62979263e-01 3.62979263e-01
      3.62979263e-01 3.62979263e-01 3.62979263e-01 3.62979263e-01
      3.52914929e-01 1.50209695e-01 2.42358834e-01 3.40892255e-01
      3.40892255e-01 3.40892255e-01 3.40892255e-01 3.40892255e-01
      3.40892255e-01 3.14230174e-01 2.90518105e-01 3.40892255e-01
      3.24707150e-01 4.36101288e-01 4.36101288e-01 4.36101288e-01
      4.36101288e-01 2.64222085e-01 1.61421165e-01 1.15672544e-01
      1.42201692e-01 4.19631869e-01 4.19631869e-01 4.19631869e-01
      4.19631869e-01 2.05470890e-01 7.89395124e-02 1.02328874e-01
      2.37555429e-01 4.19631869e-01 3.63916695e-01 3.63916695e-01
      3.63916695e-01 3.63916695e-01 3.63916695e-01 3.06510150e-01
      3.57989997e-01 1.72531798e-01 2.86905855e-01 3.34771961e-01
      3.34771961e-01 3.34771961e-01 3.34771961e-01 3.34771961e-01
      3.34771961e-01 3.16349804e-01 3.34771961e-01 3.34771961e-01
      2.63455331e-01 3.40439022e-01 3.40439022e-01 3.40439022e-01
      3.40439022e-01 3.40439022e-01 3.40439022e-01 3.40439022e-01
      3.40439022e-01 3.10467482e-01 2.73801893e-01 2.47468635e-01
      2.16616198e-01 3.78601789e-01 3.78601789e-01 3.78601789e-01
      3.78601789e-01 3.78601789e-01 3.49591613e-01 3.49591613e-01
      3.49591613e-01 3.49591613e-01 3.49591613e-01 3.49591613e-01
      2.57546276e-01 2.73271054e-01 3.49591613e-01 2.43637621e-01
      3.52409184e-01 3.52409184e-01 3.52409184e-01 3.52409184e-01
      3.52409184e-01 3.52409184e-01 3.37913573e-01 2.78892159e-01
      3.34299535e-01 3.34299535e-01 3.34299535e-01 3.34299535e-01
      3.34299535e-01 3.34299535e-01 3.34299535e-01 3.20328742e-01
      3.34299535e-01</_>
    <_>
      3.98322642e-01 3.98322642e-01 3.98322642e-01 2.44582891e-01
      2.28677571e-01 1.85910717e-01 2.36726135e-01 3.98322642e-01
      3.98322642e-01 4.05085802e-01 4.05085802e-01 4.05085802e-01
      4.05085802e-01 4.05085802e-01 1.70656607e-01 1.41701967e-01
      1.67834148e-01 3.13224286e-01 3.65136564e-01 3.65136564e-01
      3.65136564e-01 3.65136564e-01 3.14503729e-01 1.94413736e-01
      2.44324476e-01 3.65136564e-01 3.65136564e-01 3.41114730e-01
      3.41114730e-01 3.41114730e-01 3.41114730e-01 3.41114730e-01
      2.56354690e-01 3.41114730e-01 3.41114730e-01 3.41114730e-01
      3.25682342e-01 4.71202135e-01 4.71202135e-01 3.74663472e-01
      2.26097524e-01 1.12935446e-01 1.77117139e-01 3.21199626e-01
      3.26151371e-01 4.63495314e-01 4.63495314e-01 4.63495314e-01
      2.97148228e-01 1.34575471e-01 6.61779568e-02 3.72420810e-02
      1.54546842e-01 4.63495314e-01 4.91618603e-01 4.91618603e-01
      4.91618603e-01 4.91618603e-01 7.69895017e-02 1.24949766e-02
      2.36552618e-02 2.76105031e-02 1.44669309e-01 3.24028403e-01
      3.33854347e-01 3.33854347e-01 3.33854347e-01 3.33854347e-01
      3.33854347e-01 3.33854347e-01 3.33854347e-01 3.33854347e-01
      1.67108178e-01 5.01206458e-01 5.01206458e-01 5.01206458e-01
      3.81982714e-01 3.98307666e-02 7.00765625e-02 1.28516167e-01
      2.11000279e-01 4.27240998e-01 4.27240998e-01 4.27240998e-01
      4.27240998e-01 2.85689771e-01 1.74917251e-01 1.64369062e-01
      1.27211466e-01 3.31930757e-01 3.61817926e-01 3.61817926e-01
      3.61817926e-01 3.61817926e-01 2.20694244e-01 2.47490123e-01
      3.17733645e-01 3.61817926e-01 3.61817926e-01 3.95994991e-01
      5.06861687e-01 5.06861687e-01 4.82934535e-01 1.98614389e-01
      1.25192583e-01 7.17376992e-02 9.28677320e-02 1.48966014e-01
      4.85769093e-01 4.85769093e-01 4.85769093e-01 2.07516909e-01
      9.36205164e-02 3.11859567e-02 7.16494098e-02 7.76600614e-02
      4.72512543e-01 4.54230756e-01 4.54230756e-01 4.54230756e-01
      2.14205235e-01 1.73188508e-01 1.17390722e-01 1.83661640e-01
      3.04782182e-01 4.00254458e-01 2.62159616e-01 2.49343246e-01
      3.63349348e-01 3.63349348e-01 3.63349348e-01 3.59026283e-01
      3.36544365e-01 3.63349348e-01 3.08572799e-01 2.66017020e-02
      2.44475931e-01 5.38653612e-01 5.38653612e-01 5.38653612e-01
      2.44324088e-01 4.41196151e-02 3.78426090e-02 2.50731893e-02
      1.77645013e-01 4.00725484e-01 4.16307658e-01 4.16307658e-01
      4.16307658e-01 4.16307658e-01 2.90359765e-01 1.49688646e-01
      6.11466244e-02 2.88641214e-01 3.44741970e-01 3.44741970e-01
      3.44741970e-01 3.44741970e-01 3.44741970e-01 3.05956185e-01
      3.42147499e-01 3.29139143e-01 3.59384298e-01 3.59384298e-01
      3.59384298e-01 3.59384298e-01 3.59384298e-01 3.59384298e-01
      2.86145270e-01 2.59354800e-01 2.68929422e-01 4.50383157e-01
      4.50383157e-01 4.50383157e-01 2.88669467e-01 2.09212422e-01
      9.58349630e-02 1.27860844e-01 1.77450627e-01 4.50383157e-01
      3.47133040e-01 2.64888674e-01 2.87847698e-01 3.47133040e-01
      3.47133040e-01 3.47133040e-01 3.47133040e-01 3.47133040e-01
      3.47133040e-01 1.88493624e-01 2.87164241e-01 3.63923192e-01
      3.63923192e-01 3.63923192e-01 3.63923192e-01 3.29715788e-01
      3.63923192e-01 3.27807665e-01 4.84052375e-02 1.17163278e-01
      3.50584447e-01 5.23141205e-01 5.23141205e-01 5.23141205e-01
      1.64803356e-01 5.91936968e-02 6.40423447e-02 9.60967913e-02
      2.84622192e-01 4.01400179e-01 4.01400179e-01 4.01400179e-01
      4.01400179e-01 4.01400179e-01 2.81154722e-01 1.45213708e-01
      2.72372842e-01 3.39562267e-01 3.39562267e-01 3.39562267e-01
      3.39562267e-01 3.39562267e-01 3.39562267e-01 3.39562267e-01
      3.39562267e-01 3.37710500e-01 2.68288672e-01 2.43744180e-01
      3.53795350e-01 3.53795350e-01 3.53795350e-01 3.53795350e-01
      3.53795350e-01 3.53795350e-01 3.77414644e-01 3.77414644e-01
      3.77414644e-01 3.51136357e-01 2.39888370e-01 1.71744242e-01
      2.71442860e-01 3.77414644e-01 3.77414644e-01 3.92041773e-01
      1.54325679e-01 1.29483387e-01 1.96523353e-01 2.29864955e-01
      2.14959905e-01 4.70232964e-01 4.70232964e-01 4.70232964e-01
      2.09611222e-01 3.41233075e-01 3.46515775e-01 3.46515775e-01
      3.46515775e-01 3.46515775e-01 3.46515775e-01 3.46515775e-01
      3.40179086e-01 1.57865271e-01 1.34869963e-01 1.20845616e-01
      3.68149251e-01 4.28321332e-01 4.28321332e-01 4.28321332e-01
      4.26293701e-01 2.65270948e-01 3.42413247e-01 3.42413247e-01
      3.42413247e-01 2.58143693e-01 3.30473840e-01 3.42413247e-01
